svm_type c_svc
kernel_type rbf
gamma 0.5
nr_class 2
total_sv 137
rho -0.8555257464363669
label 0 1
probA -2.1846749369240728
probB -0.029012824796371434
nr_sv 73 64
SV
41.077188459244674 1:0.7660818712280701 2:0.2836432845391268 3:1.0 4:-0.47570240209445147 5:-1.0 6:-0.5259661836231884
13.56866155117485 1:0.6842105263157894 2:0.6864342444793397 3:1.0 4:0.49898023133671665 5:-0.8148148148148149 6:0.3188405797101448
125.82885094820179 1:0.6754385964912282 2:0.5952824483141022 3:1.0 4:-0.7780235836766559 5:-0.6296296296296297 6:-0.8953301127536232
128.0 1:0.5789473684210527 2:0.502269792313998 3:1.0 4:-0.37654122816638524 5:-0.7037037037037037 6:-0.463998159710145
108.01946201580601 1:0.7543859649122806 2:0.7821684479077955 3:1.0 4:0.05864007669114657 5:-1.0 6:-0.03381642507246374
13.062423670859332 1:0.9298245614035088 2:-0.22592029136186764 3:1.0 4:-0.003057663182821302 5:-0.8518518518518519 6:-0.08743430478260883
128.0 1:0.605263157894737 2:0.43261705369195913 3:1.0 4:-0.5044672099795564 5:-0.962962962962963 6:-0.6739130434782609
128.0 1:0.415204678245614 2:0.25700549602761935 3:1.0 4:-0.4306114906860872 5:-0.7407407407407407 6:-0.4790716530434783
67.9388286545139 1:0.6842105263157894 2:0.5648210776496296 3:1.0 4:-0.6825334890962654 5:-0.5185185185185186 6:-0.9130434782608696
70.8003258111797 1:0.8128654971929823 2:0.3496487705309981 3:1.0 4:-0.7653445969376375 5:-0.962962962962963 6:-0.8069955407246376
17.24184793449911 1:0.12280701754385959 2:0.28626606256144216 3:1.0 4:0.41130533141267045 5:-1.0 6:-0.08651734739130446
112.03581301369489 1:0.8070175438596492 2:0.6437612991840347 3:1.0 4:-0.5657262744618272 5:-0.962962962962963 6:-0.9262422360869565
63.29053348909193 1:0.7777777778947368 2:0.620144445994639 3:1.0 4:-0.3954823194926448 5:-0.962962962962963 6:-0.4927536231884059
5.462300660765062 1:0.5438596491228069 2:0.3211236233044945 3:1.0 4:-0.19554685957968476 5:-0.962962962962963 6:-0.28743961347826086
128.0 1:0.5526315789473684 2:0.550627797408481 3:1.0 4:-0.7802362952832474 5:-0.8518518518518519 6:-0.772361294057971
128.0 1:0.5672514621052631 2:0.5588093202829327 3:1.0 4:-0.7637607336856748 5:-0.962962962962963 6:-0.7987117552173914
128.0 1:0.5438596491228069 2:0.43328410366388503 3:1.0 4:-0.5896332873965475 5:-0.9259259259259259 6:-0.6249682176811594
128.0 1:0.7076023392982456 2:0.4674218605829181 3:1.0 4:-0.5102016942206824 5:-0.9259259259259259 6:-0.5960026523188406
41.92911980104383 1:0.6491228070175439 2:0.39848710317442015 3:1.0 4:0.2780188300492241 5:-0.7777777777777778 6:0.1642512076811593
128.0 1:0.5438596491228069 2:0.4431672706267311 3:1.0 4:-0.4647936485417199 5:-0.8518518518518519 6:-0.5111571198550725
128.0 1:0.5175438596491229 2:0.35217332190995254 3:1.0 4:-0.2796470095090686 5:-0.962962962962963 6:-0.3413561076811594
128.0 1:0.5321637428070174 2:0.5888788605182422 3:1.0 4:-0.3107369561527229 5:-0.962962962962963 6:-0.515771525942029
128.0 1:0.4970760235087719 2:0.7381353125357142 3:1.0 4:-0.8635564244125917 5:-0.8518518518518519 6:-0.8918371697101449
128.0 1:0.48245614035087714 2:0.6071480928164088 3:1.0 4:-0.6454241540541898 5:-0.962962962962963 6:-0.657647956231884
128.0 1:0.3771929824561404 2:0.47157670889099323 3:1.0 4:-0.41769035710424696 5:-0.7037037037037037 6:-0.4135594742028986
7.669693574736768 1:0.7309941519298246 2:0.5005269558886509 3:1.0 4:-0.7198061380929859 5:0.07407407407407418 6:-0.9300788202898551
123.24239486751412 1:0.5906432747368422 2:0.47213834362940843 3:1.0 4:-0.7053442874262068 5:-0.962962962962963 6:-0.7435897436231884
128.0 1:0.520467836140351 2:0.47070655310410525 3:1.0 4:-0.6417326121326881 5:-0.8888888888888888 6:-0.6739130434782609
128.0 1:0.6140350877192982 2:0.6490154536616226 3:1.0 4:-0.6043972236135629 5:-0.5925925925925926 6:-0.5721187026086957
128.0 1:0.4736842105263157 2:0.49186635314934213 3:1.0 4:0.040014126607836875 5:-0.2222222222222222 6:-0.1873706004347826
13.989312204330204 1:0.3216374270175437 2:0.422312075697747 3:1.0 4:0.22688677539885815 5:-0.40740740740740744 6:-0.6066252588405798
128.0 1:0.8011695905263159 2:0.09620775046437435 3:1.0 4:-0.6511998610988291 5:-0.962962962962963 6:-0.7101449275362319
75.04924468056332 1:0.6608187133333334 2:0.9853632089415605 3:1.0 4:-0.6714508313733392 5:-0.6666666666666667 6:-0.8792270531884058
128.0 1:0.520467836140351 2:0.3495608175140532 3:1.0 4:-0.6642024830391131 5:-0.7777777777777778 6:-0.749482401594203
107.26338204715003 1:0.5555555554385965 2:0.4077937328778849 3:1.0 4:-0.8989304352844328 5:-0.7407407407407407 6:-0.9094202898550725
8.668356064074935 1:0.7017543859649122 2:0.13016849036121791 3:1.0 4:0.01619587338425954 5:-0.8148148148148149 6:0.06719367594202907
128.0 1:0.4970760235087719 2:0.3946967662406642 3:1.0 4:-0.427055220370568 5:-0.6666666666666667 6:-0.5164690382608695
128.0 1:0.415204678245614 2:0.39774257215486997 3:1.0 4:-0.2854179483601381 5:-0.5555555555555556 6:-0.4565217391304348
128.0 1:0.46198830421052617 2:0.5292762801834581 3:1.0 4:-0.3211230244301846 5:-0.8888888888888888 6:-0.5297906602898551
128.0 1:0.45029239754385975 2:0.42543253493302924 3:1.0 4:-0.13415467389669966 5:-0.7037037037037037 6:-0.22900682014492757
128.0 1:0.3450292396491228 2:0.3483891952533682 3:1.0 4:-0.22835475045784026 5:-0.5925925925925926 6:-0.41221339797101453
128.0 1:0.5438596491228069 2:0.5697330517517185 3:1.0 4:-0.8554553316183695 5:-0.4444444444444444 6:-0.9150049036231884
93.14482377631032 1:0.1578947368421053 2:0.0052396694148320044 3:1.0 4:-0.4635958899065662 5:-0.2592592592592593 6:-0.536231884057971
8.161175775244438 1:0.26315789473684204 2:0.07280580583293772 3:1.0 4:-0.6317840466728241 5:-0.5185185185185186 6:-0.6376811594202898
128.0 1:0.46198830421052617 2:0.3799246048094509 3:1.0 4:-0.869030286564925 5:-0.6296296296296297 6:-0.9810606060869566
128.0 1:0.5438596491228069 2:0.5101497455227357 3:1.0 4:-0.37613073920145323 5:-0.8148148148148149 6:-0.4655248133333334
128.0 1:0.4736842105263157 2:0.6495799884949451 3:1.0 4:-0.4870499114692939 5:-0.40740740740740744 6:-0.6407004830434784
128.0 1:0.6959064326315789 2:0.6992773938453656 3:1.0 4:-0.6852858928940685 5:-0.9259259259259259 6:-0.7198067633333334
42.95063622425292 1:-0.07602339192982444 2:0.09850208469750998 3:1.0 4:-0.38521238861578344 5:-0.8518518518518519 6:-0.4517640169565218
87.30517966346358 1:-0.01754385964912286 2:0.21139997047357717 3:1.0 4:-0.7808406272445468 5:-0.9259259259259259 6:-0.9821627647826087
68.09026927872767 1:-0.02631578947368418 2:0.2062254788155693 3:1.0 4:-0.7495580636933485 5:-0.962962962962963 6:-0.8524374176811594
128.0 1:0.5906432747368422 2:0.5652619175384785 3:1.0 4:0.0267855547367446 5:-0.7407407407407407 6:-0.09661835753623194
128.0 1:0.6023391814035086 2:0.7437924756733423 3:1.0 4:-0.6364886403681151 5:-0.962962962962963 6:-0.9028731247826087
128.0 1:0.6608187133333334 2:0.6229078089319076 3:1.0 4:-0.3232600472177951 5:-0.9259259259259259 6:-0.3807641633333334
55.05500358747449 1:0.7192982456140351 2:0.520432283965597 3:1.0 4:-0.41084090498913073 5:-0.962962962962963 6:-0.8840579710144928
67.9762210780499 1:0.7192982456140351 2:0.3175051009121359 3:1.0 4:-0.4667117090281875 5:-0.962962962962963 6:-0.43143812710144935
128.0 1:0.7309941519298246 2:0.6164627018013342 3:1.0 4:-0.2083308441070315 5:-1.0 6:-0.2753623188405797
128.0 1:0.4970760235087719 2:0.37391759829138893 3:1.0 4:-0.3006783406712723 5:-0.7777777777777778 6:-0.4927536231884059
128.0 1:0.5877192982456141 2:0.6584466681723267 3:1.0 4:-0.131692815468069 5:-0.5185185185185186 6:-0.03784219
62.502905654771425 1:0.7456140350877194 2:1.0 3:1.0 4:-0.0768193194243385 5:-0.9259259259259259 6:-0.11433172304347838
7.03134435116924 1:0.49122807017543857 2:0.2260397983227096 3:1.0 4:-0.27132541451960523 5:-0.2592592592592593 6:-0.3624652320289855
128.0 1:0.5789473684210527 2:0.580871674356453 3:1.0 4:-0.23920310077002127 5:-0.8888888888888888 6:-0.9077733860869566
128.0 1:0.5526315789473684 2:0.7277472221635584 3:1.0 4:-0.37572500608053927 5:-0.7037037037037037 6:-0.8892914653623188
30.3411999551212 1:0.8011695905263159 2:0.21899799934527087 3:1.0 4:-0.7807270753334203 5:-1.0 6:-0.7993311036231884
128.0 1:0.5789473684210527 2:0.20775194457411095 3:1.0 4:-0.7394418999343718 5:-0.2592592592592593 6:-0.8594642072463768
128.0 1:0.6228070175438596 2:0.3496188328137455 3:1.0 4:-0.5069461570211626 5:-0.37037037037037035 6:-0.8023715414492754
124.50176470782354 1:0.7777777778947368 2:0.4759182662205008 3:1.0 4:-0.5292113043428786 5:-0.962962962962963 6:-0.7931488801449276
34.45191447018363 1:0.7192982456140351 2:0.39601661497876317 3:1.0 4:-0.46770708764355484 5:-0.8888888888888888 6:-0.41545893724637684
7.799826411875506 1:0.4736842105263157 2:0.09945660992750494 3:1.0 4:-0.776399608447521 5:-0.4444444444444444 6:-0.8023715414492754
128.0 1:0.46198830421052617 2:0.1974257077048902 3:1.0 4:-0.6738404208588391 5:-0.5925925925925926 6:-0.8340146166666667
72.07425269069284 1:0.5964912280701755 2:0.27837429990893225 3:1.0 4:-0.6388342686161803 5:-0.4444444444444444 6:-0.958937198115942
128.0 1:0.4970760235087719 2:0.5071885449188778 3:1.0 4:-0.5608490118681648 5:-0.6296296296296297 6:-0.6086956521739131
128.0 1:0.7017543859649122 2:0.4893468876577145 3:1.0 4:-0.3888707805407098 5:-0.8888888888888888 6:-0.408695652173913
-128.0 1:0.5789473684210527 2:0.3632907794505138 3:1.0 4:-0.492957851813547 5:-0.8518518518518519 6:-0.6474277481159421
-128.0 1:0.45029239754385975 2:0.32623219811032445 3:1.0 4:-0.640970239791967 5:-0.4444444444444444 6:-0.6825396826086957
-128.0 1:0.6491228070175439 2:0.41188865080511006 3:1.0 4:-0.30613622598693635 5:-0.962962962962963 6:-0.5652173913043479
-128.0 1:0.6725146199999998 2:0.29562736119815614 3:1.0 4:-0.2536364562712432 5:-0.8888888888888888 6:-0.4392419175362319
-128.0 1:0.4385964912280702 2:0.37396697093301423 3:1.0 4:-0.285882606575263 5:-0.40740740740740744 6:-0.37383872159420284
-0.789460149977028 1:-0.8333333333333334 2:-0.030898319413963482 3:-1.0 4:-0.5578002815277265 5:-0.8148148148148149 6:-0.5286404417391304
-128.0 1:0.5438596491228069 2:0.351868044036008 3:1.0 4:-0.18673520429725277 5:-0.7407407407407407 6:-0.2586399108695653
-128.0 1:0.6140350877192982 2:0.16165252910492311 3:1.0 4:-0.6566315267329973 5:-0.8148148148148149 6:-0.8120976731884058
-128.0 1:0.4035087719298245 2:0.1491515279506832 3:1.0 4:-0.7029358604412199 5:-0.4814814814814815 6:-0.7284050282608696
-90.86107527957786 1:0.06140350877192979 2:0.4626125946017172 3:1.0 4:-0.7001985769278476 5:-0.8888888888888888 6:-0.757978153768116
-3.1975506791688257 1:-0.7894736842105263 2:-0.22080266783107716 3:1.0 4:-0.3131425788395126 5:-1.0 6:-0.3871635610144929
-1.2596279414640843 1:-0.7894736842105263 2:-0.3812223838789104 3:1.0 4:-0.7145160008543305 5:-1.0 6:-0.8152173913043479
-12.676576043822905 1:-0.7894736842105263 2:-0.3812223838789104 3:1.0 4:-0.7145160008543305 5:-1.0 6:-0.8152173913043479
-128.0 1:0.42105263157894735 2:0.4509506482627774 3:1.0 4:0.0963775764293362 5:-0.8148148148148149 6:-0.11663216014492761
-128.0 1:0.4035087719298245 2:0.44628001325088706 3:1.0 4:-0.3740998405446152 5:-0.5185185185185186 6:-0.4956873789855073
-128.0 1:0.5789473684210527 2:0.32147320267444024 3:1.0 4:-0.4370294504154125 5:-0.8518518518518519 6:-0.6118012421739131
-99.43115409685929 1:0.3421052631578947 2:0.46571915375179707 3:1.0 4:-0.20831445150212247 5:-0.40740740740740744 6:-0.4564185143478261
-128.0 1:0.5263157894736843 2:0.4677196845160707 3:1.0 4:-0.27342499789968966 5:-0.8148148148148149 6:-0.19574752101449278
-128.0 1:0.6374269007017543 2:0.6191215433883215 3:1.0 4:-0.6043483209721794 5:-0.8888888888888888 6:-0.962356484057971
-128.0 1:0.6140350877192982 2:0.6802794001287429 3:1.0 4:-0.6278144963936927 5:-0.9259259259259259 6:-0.9052885837681159
-128.0 1:0.6403508771929824 2:0.8330081971577896 3:1.0 4:-0.2922595309609366 5:-0.962962962962963 6:-0.32698683333333334
-128.0 1:0.6578947368421053 2:0.8196404911151791 3:1.0 4:-0.25368393428101077 5:-0.962962962962963 6:-0.9085483995652174
-128.0 1:0.6959064326315789 2:0.635399072521639 3:1.0 4:0.20414867349652877 5:-0.8888888888888888 6:0.07998139971014484
-128.0 1:0.4970760235087719 2:0.39091684230941603 3:1.0 4:-0.5931421927481952 5:-0.33333333333333337 6:-0.9376710246376811
-128.0 1:0.4736842105263157 2:0.486699962726878 3:1.0 4:-0.7008698618252613 5:-0.8148148148148149 6:-0.7763975155072464
-128.0 1:0.6140350877192982 2:0.43827973424674704 3:1.0 4:-0.8045243381190011 5:-0.6296296296296297 6:-0.8324942791304348
-9.915922132647976 1:0.4970760235087719 2:0.8813028102516696 3:1.0 4:-0.259134707521527 5:-0.7777777777777778 6:-0.38047459782608706
-128.0 1:0.5789473684210527 2:0.9037614480886307 3:1.0 4:-0.45844201603789025 5:-0.8888888888888888 6:-0.5134575569565218
-128.0 1:0.5350877192982457 2:0.6907725653350962 3:1.0 4:-0.04575672925424523 5:-0.8888888888888888 6:-0.0078037904347826315
-128.0 1:0.415204678245614 2:0.5850451548361972 3:1.0 4:-0.0273285958730477 5:-0.33333333333333337 6:-0.5445134575362318
-128.0 1:0.736842105263158 2:0.5723077074968004 3:1.0 4:-0.014533383069981087 5:-0.6296296296296297 6:0.005866114492753649
-128.0 1:0.6374269007017543 2:0.1774186659018926 3:1.0 4:-0.3521269048315834 5:-1.0 6:-0.48863462999999996
-128.0 1:0.6608187133333334 2:0.15738687948134933 3:1.0 4:-0.43410506391099457 5:-0.7777777777777778 6:-0.5492063492753623
-57.849719938861725 1:0.4122807017543859 2:0.46104293029454535 3:1.0 4:-0.21885800981231796 5:-0.18518518518518523 6:-0.1518394649275363
-128.0 1:0.763157894736842 2:0.39145757465399234 3:1.0 4:-0.7478520206268064 5:-0.962962962962963 6:-0.8044628479710145
-128.0 1:0.6959064326315789 2:0.48115254084233383 3:1.0 4:-0.5498849858386234 5:-0.8888888888888888 6:-0.5902503294202899
-128.0 1:0.7105263157894737 2:0.5889509340414005 3:1.0 4:-0.7740146760096256 5:-0.962962962962963 6:-0.8060631520289855
-85.97836824153764 1:0.5175438596491229 2:0.5701944938397394 3:1.0 4:-0.712617023908418 5:-0.33333333333333337 6:-0.751393534057971
-128.0 1:0.6666666666666667 2:0.616568328779294 3:1.0 4:-0.9242161350695116 5:-0.6666666666666667 6:-0.9378881986956522
-128.0 1:0.5906432747368422 2:0.5444738442608021 3:1.0 4:-0.7037829149244426 5:-1.0 6:-0.7365242817391304
-128.0 1:0.5906432747368422 2:0.5495523258914277 3:1.0 4:-0.6884165973419833 5:-0.8148148148148149 6:-0.9072463768115941
-0.3062688705105752 1:-0.736842105263158 2:0.025007821930538743 3:-1.0 4:-0.6221782113543668 5:-0.6296296296296297 6:-0.9118336772463769
-0.21751018839197583 1:-1.0 2:0.1583421980829649 3:-1.0 4:-1.0 5:-1.0 6:-1.0
-128.0 1:0.6257309940350877 2:0.5395560244036366 3:1.0 4:-0.5229634948366917 5:-0.8148148148148149 6:-0.5639460971014493
-128.0 1:0.6578947368421053 2:0.6345236914713308 3:1.0 4:-0.40289292636982976 5:-0.962962962962963 6:-0.8071833647826087
-128.0 1:0.6140350877192982 2:0.6933415951104818 3:1.0 4:-0.39882723894737415 5:-0.8888888888888888 6:-0.5075853885507247
-128.0 1:0.520467836140351 2:0.7737814444641413 3:1.0 4:-0.9085261477703732 5:-0.5185185185185186 6:-0.9200893624637682
-128.0 1:0.6608187133333334 2:0.41763013514027536 3:1.0 4:-0.595084135051029 5:-0.7777777777777778 6:-0.6582034797101449
-128.0 1:0.6257309940350877 2:0.3706071613972024 3:1.0 4:-0.7846193262853695 5:-0.7407407407407407 6:-0.8574994798550725
-128.0 1:0.6842105263157894 2:0.3995380605805474 3:1.0 4:-0.7711468016870131 5:-0.962962962962963 6:-0.7908602634782609
-128.0 1:0.5087719298245614 2:0.575832228753766 3:1.0 4:-0.30747365773495405 5:-0.5925925925925926 6:-0.426646325942029
-128.0 1:0.7309941519298246 2:0.5876949423376063 3:1.0 4:-0.43496430265189945 5:-1.0 6:-0.6408317579710145
-128.0 1:0.6959064326315789 2:0.5976741059262862 3:1.0 4:-0.4740979337738357 5:-0.962962962962963 6:-0.5304847576811594
-7.041023510785344 1:0.5350877192982457 2:0.675005924639936 3:1.0 4:-0.4322264846245979 5:-0.2222222222222222 6:-0.8672081028985508
-128.0 1:0.6403508771929824 2:0.6313327588576783 3:1.0 4:-0.6258937380051655 5:-0.8148148148148149 6:-0.6345607101449275
-128.0 1:0.6023391814035086 2:0.6080528245961825 3:1.0 4:-0.5278521107848668 5:-1.0 6:-0.6376811594202898
-128.0 1:0.6257309940350877 2:0.4972666970691051 3:1.0 4:-0.5158990164442121 5:-0.7777777777777778 6:-0.6176964149275362
-128.0 1:0.5087719298245614 2:0.4771975055889708 3:1.0 4:-0.6576121185018293 5:-0.37037037037037035 6:-0.9055775142028986
-128.0 1:0.6374269007017543 2:0.5393097146794228 3:1.0 4:-0.41258698561887985 5:-0.8148148148148149 6:-0.485852311884058
-128.0 1:0.5701754385964912 2:0.30837056718257116 3:1.0 4:-0.4525898959838933 5:-0.9259259259259259 6:-0.3969681826086957
-128.0 1:0.4649122807017543 2:0.20626353787068563 3:1.0 4:-0.7682878402575078 5:-0.5555555555555556 6:-0.9516908213043478
-128.0 1:0.3099415203508773 2:0.3087620170077805 3:1.0 4:-0.2884168910079893 5:-0.4444444444444444 6:-0.3728135931884058
-128.0 1:0.03508771929824572 2:0.38689830918322365 3:1.0 4:-0.5217081885573224 5:-1.0 6:-0.4653349001449276
-128.0 1:0.0292397659649124 2:0.28981381272091555 3:1.0 4:-0.7101643662124453 5:-0.8518518518518519 6:-0.9448847004347826