svm_type c_svc
kernel_type rbf
gamma 0.1111111111111111
nr_class 2
total_sv 167
rho -3.9353450901227447
label 0 1
nr_sv 87 80
SV
29.694647415552353 1:-0.61 2:0.235 3:-0.822847985 4:0.916761521 5:0.1 6:1.8 7:0.5 8:0.704578755 9:0.499633414
13.833081080570322 1:-0.52 2:0.21 3:-0.787619048 4:1.166578228 5:0.1 6:0.0 7:0.0 8:0.0 9:0.0
9.555613317175222 1:-0.486666667 2:0.196666667 3:-0.815803922 4:1.234774115 5:0.1 6:0.1 7:0.8 8:0.037647059 9:0.048412138
50.0 1:-0.4675 2:0.19 3:-0.771253414 4:1.091201593 5:0.1 6:0.2 7:1.2 8:0.749107143 9:0.089826313
50.0 1:-0.486666667 2:0.186666667 3:-0.793611111 4:1.189469274 5:0.1 6:0.6 7:0.2 8:0.475 9:0.168710683
50.0 1:-0.4925 2:0.1925 3:-0.778759921 4:1.166872466 5:0.1 6:1.0 7:0.0 8:0.072222222 9:0.107512882
50.0 1:-0.5075 2:0.195 3:-0.778650272 4:1.117639927 5:0.1 6:0.5 7:0.1 8:0.003947368 9:0.365121801
50.0 1:-0.52 2:0.196666667 3:-0.785700362 4:1.019632543 5:0.1 6:0.8 7:0.4 8:0.36984127 9:0.070118334
50.0 1:-0.493333333 2:0.18 3:-0.810939815 4:1.206969567 5:0.1 6:0.0 7:0.4 8:0.34625 9:0.180986213
50.0 1:-0.616666667 2:0.176666667 3:-0.83797549 4:1.039482367 5:0.1 6:2.8 7:0.3 8:0.046764706 9:0.197635422
50.0 1:-0.5025 2:0.2 3:-0.785444444 4:1.092664072 5:0.1 6:0.5 7:0.8 8:0.071111111 9:0.10335193
50.0 1:-0.49 2:0.2 3:-0.781032895 4:1.193735979 5:0.1 6:1.3 7:0.1 8:0.06 9:0.246536663
50.0 1:-0.503333333 2:0.22 3:-0.787415655 4:1.270658617 5:0.1 6:0.4 7:0.7 8:0.069838057 9:0.157678723
50.0 1:-0.596666667 2:0.25 3:-0.830223064 4:0.849578192 5:0.1 6:1.7 7:0.9 8:0.623863636 9:0.189784256
50.0 1:-0.515 2:0.2025 3:-0.788298107 4:0.987065932 5:0.1 6:0.2 7:0.7 8:0.435020243 9:0.18356283
32.04303740267924 1:-0.57 2:0.1725 3:-0.806573357 4:1.07673713 5:0.1 6:0.9 7:0.1 8:0.693274854 9:0.177616835
20.51146234343745 1:-0.65 2:0.225 3:-0.801818182 4:0.820367718 5:0.1 6:0.0 7:2.1 8:0.63030303 9:0.09310773
50.0 1:-0.6725 2:0.2625 3:-0.847625463 4:0.72843087 5:0.1 6:1.4 7:0.3 8:0.16712963 9:0.066900093
50.0 1:-0.56 2:0.21 3:-0.817595029 4:0.99351538 5:0.1 6:0.4 7:0.5 8:0.155482456 9:0.280301687
50.0 1:-0.6625 2:0.2425 3:-0.861670615 4:0.830640178 5:0.1 6:2.3 7:0.3 8:0.275652174 9:0.32542204
18.50371571957084 1:-0.5275 2:0.1925 3:-0.782091972 4:1.036279962 5:0.1 6:0.4 7:0.4 8:0.157070707 9:0.017099041
50.0 1:-0.483333333 2:0.176666667 3:-0.788300654 4:1.207733311 5:0.1 6:0.2 7:0.1 8:0.27875817 9:0.217656081
50.0 1:-0.67 2:0.286666667 3:-0.844159115 4:0.70613723 5:0.1 6:0.5 7:1.3 8:0.319052632 9:0.22994542
50.0 1:-0.6725 2:0.28 3:-0.843984721 4:0.708200558 5:0.1 6:0.3 7:1.2 8:0.205668016 9:0.159837425
50.0 1:-0.53 2:0.186666667 3:-0.790110489 4:1.037297992 5:0.1 6:0.4 7:0.3 8:0.337301587 9:0.144887011
50.0 1:-0.5375 2:0.195 3:-0.796900298 4:0.992161614 5:0.1 6:0.1 7:0.5 8:0.454464286 9:0.065249817
50.0 1:-0.533333333 2:0.176666667 3:-0.779237745 4:1.028580591 5:0.1 6:0.1 7:0.3 8:0.334117647 9:0.065931496
50.0 1:-0.5475 2:0.1775 3:-0.777874527 4:1.073342287 5:0.1 6:0.1 7:0.2 8:0.23622291 9:0.123158749
50.0 1:-0.5775 2:0.1825 3:-0.787990626 4:1.062057942 5:0.1 6:0.8 7:0.2 8:0.404643963 9:0.020277393
50.0 1:-0.736666667 2:0.28 3:-0.870654964 4:0.699375326 5:0.1 6:0.3 7:0.1 8:0.371509972 9:0.255601198
50.0 1:-0.68 2:0.28 3:-0.859173483 4:0.808721781 5:0.1 6:1.6 7:0.4 8:0.013381123 9:0.025465776
50.0 1:-0.61 2:0.243333333 3:-0.834184236 4:0.890171844 5:0.1 6:1.9 7:0.6 8:0.709230769 9:0.342254132
50.0 1:-0.525 2:0.2225 3:-0.817597884 4:1.041770411 5:0.1 6:1.1 7:0.6 8:0.362962963 9:0.336798318
50.0 1:-0.795 2:0.2525 3:-0.865622575 4:0.694812226 5:0.1 6:0.0 7:1.2 8:0.062308998 9:0.047988895
21.595415567832465 1:-0.55 2:0.236666667 3:-0.844727011 4:0.927138846 5:0.1 6:0.7 7:1.1 8:0.312643678 9:0.400234997
5.811779405309959 1:-0.6375 2:0.225 3:-0.844043703 4:0.813684253 5:0.1 6:1.5 7:0.9 8:0.19924812 9:0.11032175
50.0 1:-0.6325 2:0.2425 3:-0.846538642 4:0.844226303 5:0.1 6:0.3 7:0.7 8:0.273481781 9:0.254140173
50.0 1:-0.55 2:0.1325 3:-0.786476648 4:1.087031292 5:0.1 6:2.1 7:0.2 8:0.560714286 9:0.296630591
16.80289009319171 1:-0.6 2:0.14 3:-0.788095238 4:0.998846314 5:0.1 6:2.5 7:0.0 8:0.871428571 9:0.307904218
50.0 1:-0.496666667 2:0.153333333 3:-0.749652778 4:1.257324762 5:0.1 6:0.9 7:0.6 8:0.083333333 9:0.167574525
50.0 1:-0.46 2:0.166666667 3:-0.753819444 4:1.352404921 5:0.1 6:0.7 7:0.0 8:0.08125 9:0.167699164
50.0 1:-0.455 2:0.175 3:-0.762081398 4:1.267369261 5:0.1 6:0.4 7:0.1 8:0.379824561 9:0.253235016
50.0 1:-0.496666667 2:0.196666667 3:-0.805608466 4:1.193297391 5:0.1 6:0.9 7:0.4 8:0.187301587 9:0.242932943
9.826627909170423 1:-0.73 2:0.27 3:-0.855490504 4:0.6973791 5:0.1 6:0.2 7:0.9 8:0.15659824 9:0.071766936
50.0 1:-0.82 2:0.27 3:-0.85140059 4:0.606706921 5:0.1 6:0.0 7:0.1 8:0.008262108 9:0.081740831
50.0 1:-0.8075 2:0.2725 3:-0.849755291 4:0.634657661 5:0.1 6:0.3 7:0.0 8:0.118518519 9:0.090632498
17.303784906982735 1:-0.8 2:0.27 3:-0.844197531 4:0.658716349 5:0.1 6:0.4 7:0.0 8:0.055555556 9:0.009529041
50.0 1:-0.74 2:0.27 3:-0.843209877 4:0.662385062 5:0.1 6:1.3 7:0.0 8:0.044444444 9:0.01905599
3.1776262430279267 1:-0.65 2:0.245 3:-0.845003314 4:0.772210395 5:0.1 6:2.5 7:0.8 8:0.050682261 9:0.398294993
50.0 1:-0.556666667 2:0.17 3:-0.791433824 4:1.127633699 5:0.1 6:0.8 7:0.2 8:0.531985294 9:0.113537027
50.0 1:-0.7575 2:0.27 3:-0.8516715 4:0.715875161 5:0.1 6:1.0 7:0.1 8:0.113817664 9:0.098341356
50.0 1:-0.7575 2:0.2475 3:-0.849078907 4:0.708378994 5:0.1 6:0.0 7:0.9 8:0.111111111 9:0.0041161
50.0 1:-0.53 2:0.166666667 3:-0.780666372 4:1.122058849 5:0.1 6:1.5 7:0.5 8:0.058646617 9:0.451298305
50.0 1:-0.776666667 2:0.26 3:-0.847864468 4:0.6800379 5:0.1 6:0.5 7:0.5 8:0.089225589 9:0.110475058
50.0 1:-0.763333333 2:0.253333333 3:-0.844284222 4:0.726534815 5:0.1 6:0.4 7:0.4 8:0.110344828 9:0.136054689
50.0 1:-0.783333333 2:0.24 3:-0.844872727 4:0.710094386 5:0.1 6:0.1 7:0.3 8:0.109818182 9:0.156360289
50.0 1:-0.76 2:0.263333333 3:-0.84805977 4:0.693720963 5:0.1 6:0.2 7:0.4 8:0.113793103 9:0.078135956
50.0 1:-0.545 2:0.1775 3:-0.809956294 4:1.047146919 5:0.1 6:2.0 7:1.0 8:0.41993007 9:0.220301013
50.0 1:-0.553333333 2:0.206666667 3:-0.794829545 4:1.028473955 5:0.1 6:1.0 7:0.5 8:0.013068182 9:0.057647885
50.0 1:-0.53 2:0.183333333 3:-0.785112374 4:1.117413085 5:0.1 6:0.5 7:0.8 8:0.368787879 9:0.110341059
50.0 1:-0.55 2:0.17 3:-0.774708333 4:1.12402767 5:0.1 6:1.6 7:0.2 8:0.247916667 9:0.23396797
50.0 1:-0.486666667 2:0.183333333 3:-0.771 4:1.236022213 5:0.1 6:0.2 7:0.6 8:0.193333333 9:0.011518356
50.0 1:-0.706666667 2:0.22 3:-0.815828801 4:0.747270805 5:0.1 6:0.4 7:0.4 8:0.378282828 9:0.176144413
50.0 1:-0.69 2:0.213333333 3:-0.807404558 4:0.773431262 5:0.1 6:0.2 7:0.6 8:0.012307692 9:0.053614472
4.9230008006997 1:-0.69 2:0.2 3:-0.809420875 4:0.727470834 5:0.1 6:0.1 7:0.4 8:0.173737374 9:0.181929856
50.0 1:-0.693333333 2:0.246666667 3:-0.817628283 4:0.69984035 5:0.1 6:0.1 7:0.5 8:0.248484848 9:0.044494623
50.0 1:-0.7 2:0.253333333 3:-0.825633333 4:0.732403622 5:0.1 6:0.2 7:0.1 8:0.014333333 9:0.151088045
50.0 1:-0.7075 2:0.2375 3:-0.8224375 4:0.761619102 5:0.1 6:0.1 7:0.3 8:0.004166667 9:0.013024604
50.0 1:-0.7175 2:0.235 3:-0.824040064 4:0.736002763 5:0.1 6:0.3 7:0.2 8:0.072435897 9:0.155660546
13.60680329277568 1:-0.676666667 2:0.26 3:-0.83882326 4:0.696794336 5:0.1 6:1.3 7:0.4 8:0.308928571 9:0.075109372
50.0 1:-0.613333333 2:0.256666667 3:-0.844855869 4:0.751134095 5:0.1 6:2.2 7:0.3 8:0.11270903 9:0.278509236
50.0 1:-0.77 2:0.275 3:-0.844968466 4:0.62891362 5:0.1 6:0.0 7:0.1 8:0.092877493 9:0.014425481
50.0 1:-0.783333333 2:0.283333333 3:-0.853442842 4:0.678330639 5:0.1 6:0.6 7:0.6 8:0.123798077 9:0.05563989
50.0 1:-0.513333333 2:0.166666667 3:-0.767678363 4:1.06362617 5:0.1 6:0.1 7:0.4 8:0.067017544 9:0.263583179
50.0 1:-0.496666667 2:0.19 3:-0.776698565 4:1.178526057 5:0.1 6:0.2 7:0.6 8:0.427272727 9:0.011683753
50.0 1:-0.513333333 2:0.206666667 3:-0.805588912 4:1.131139246 5:0.1 6:0.0 7:0.5 8:0.475603865 9:0.339153808
50.0 1:-0.51 2:0.213333333 3:-0.804014838 4:1.105062472 5:0.1 6:0.2 7:0.1 8:0.422619048 9:0.230928976
50.0 1:-0.485 2:0.225 3:-0.799415761 4:1.155145782 5:0.1 6:0.4 7:0.0 8:0.256521739 9:0.173939666
50.0 1:-0.48 2:0.2175 3:-0.784345109 4:1.199535539 5:0.1 6:0.1 7:0.0 8:0.08 9:0.083364458
50.0 1:-0.536666667 2:0.19 3:-0.827453951 4:1.117673147 5:0.1 6:0.5 7:0.4 8:0.41969697 9:0.455180026
50.0 1:-0.486666667 2:0.226666667 3:-0.811329469 4:1.145281 5:0.1 6:0.5 7:0.8 8:0.058666667 9:0.023294797
50.0 1:-0.476666667 2:0.243333333 3:-0.803652701 4:1.162729335 5:0.1 6:0.2 7:0.1 8:0.128853755 9:0.072682743
50.0 1:-0.485 2:0.2175 3:-0.786664646 4:1.127843413 5:0.1 6:0.3 7:0.6 8:0.408 9:0.13956185
46.95375234371761 1:-0.5025 2:0.185 3:-0.810093254 4:1.191214537 5:0.1 6:1.0 7:0.5 8:0.308333333 9:0.037796062
50.0 1:-0.4675 2:0.2175 3:-0.79793135 4:1.229928676 5:0.1 6:0.4 7:0.5 8:0.14 9:0.032382851
50.0 1:-0.415 2:0.215 3:-0.78843135 4:1.309928247 5:0.1 6:2.3 7:0.0 8:0.284210526 9:0.363691988
50.0 1:-0.4 2:0.21 3:-0.777444444 4:1.335820434 5:0.1 6:0.2 7:0.6 8:0.256666667 9:0.006886517
-50.0 1:-0.52 2:0.2 3:-0.796070732 4:1.051524039 5:0.1 6:0.4 7:0.0 8:0.243274854 9:0.185091763
-50.0 1:-0.556666667 2:0.21 3:-0.798835979 4:1.03976616 5:0.1 6:1.5 7:0.0 8:0.219047619 9:0.194809245
-50.0 1:-0.64 2:0.226666667 3:-0.791009361 4:0.930015524 5:0.1 6:1.7 7:0.8 8:0.176068376 9:0.354808062
-50.0 1:-0.69 2:0.26 3:-0.778601954 4:0.902452945 5:0.1 6:0.8 7:0.7 8:0.211904762 9:0.137677663
-50.0 1:-0.78 2:0.2875 3:-0.772641626 4:0.749483677 5:0.1 6:0.2 7:0.0 8:0.130665025 9:0.036160479
-50.0 1:-0.5 2:0.24 3:-0.792444444 4:1.061499174 5:0.1 6:0.1 7:1.0 8:0.3 9:0.023246749
-50.0 1:-0.493333333 2:0.266666667 3:-0.801119658 4:1.07834509 5:0.1 6:0.3 7:0.0 8:0.386923077 9:0.077099575
-50.0 1:-0.56 2:0.2775 3:-0.795274094 4:0.984481406 5:0.1 6:1.6 7:0.1 8:0.432051282 9:0.070528001
-50.0 1:-0.6175 2:0.28 3:-0.787000284 4:0.934104685 5:0.1 6:2.4 7:0.3 8:0.291208791 9:0.275291378
-50.0 1:-0.53 2:0.243333333 3:-0.796923077 4:1.223104232 5:0.1 6:0.7 7:0.5 8:0.511538462 9:0.426734618
-50.0 1:-0.51 2:0.276666667 3:-0.811116625 4:1.11140106 5:0.1 6:0.5 7:0.5 8:0.129652605 9:0.208716776
-50.0 1:-0.57 2:0.29 3:-0.812049428 4:1.029824876 5:0.1 6:1.4 7:0.4 8:0.187400531 9:0.055613327
-41.61680071138751 1:-0.6675 2:0.285 3:-0.788659513 4:1.091004491 5:0.1 6:0.3 7:0.1 8:0.166995074 9:0.059569283
-50.0 1:-0.78 2:0.306666667 3:-0.765061063 4:0.683818697 5:0.1 6:0.4 7:0.3 8:0.004418103 9:0.01645339
-50.0 1:-0.565 2:0.18 3:-0.789529707 4:1.057312055 5:0.1 6:0.5 7:0.6 8:0.60952381 9:0.149232062
-50.0 1:-0.57 2:0.22 3:-0.789878221 4:0.952258488 5:0.1 6:1.3 7:0.7 8:0.347975709 9:0.068776066
-50.0 1:-0.52 2:0.24 3:-0.799191087 4:1.02384387 5:0.1 6:0.4 7:0.4 8:0.267857143 9:0.114839612
-50.0 1:-0.5875 2:0.26 3:-0.788427707 4:1.023911104 5:0.1 6:1.6 7:0.2 8:0.375071225 9:0.028620614
-50.0 1:-0.783333333 2:0.3 3:-0.768802885 4:0.625473424 5:0.1 6:0.1 7:0.7 8:0.177163462 9:0.120565361
-50.0 1:-0.893333333 2:0.326666667 3:-0.824899707 4:0.670895904 5:0.1 6:0.2 7:0.5 8:0.11954023 9:0.066767708
-50.0 1:-0.535 2:0.19 3:-0.78827843 4:1.027341404 5:0.1 6:0.5 7:0.3 8:0.554934211 9:0.017419341
-50.0 1:-0.503333333 2:0.206666667 3:-0.776981089 4:0.988188817 5:0.1 6:0.3 7:0.1 8:0.025974026 9:0.297362516
-50.0 1:-0.51 2:0.22 3:-0.772417597 4:0.969552376 5:0.1 6:0.2 7:0.6 8:0.065350877 9:0.127780043
-50.0 1:-0.556666667 2:0.25 3:-0.774997194 4:1.007598569 5:0.1 6:1.5 7:0.6 8:0.150841751 9:0.227811729
-50.0 1:-0.833333333 2:0.286666667 3:-0.792788421 4:0.687472251 5:0.1 6:1.1 7:0.2 8:0.272541507 9:0.281172843
-28.348063891084518 1:-0.89 2:0.33 3:-0.817694641 4:0.679736281 5:0.1 6:0.0 7:2.0 8:0.167846309 9:0.044192944
-50.0 1:-0.5025 2:0.1725 3:-0.761021242 4:1.098440531 5:0.1 6:0.1 7:0.1 8:0.464379085 9:0.133976476
-50.0 1:-0.4975 2:0.1825 3:-0.762018717 4:1.066564251 5:0.1 6:0.1 7:0.5 8:0.063101604 9:0.400363614
-50.0 1:-0.486666667 2:0.203333333 3:-0.775766488 4:1.064375855 5:0.1 6:0.3 7:0.5 8:0.745187166 9:0.293446612
-50.0 1:-0.543333333 2:0.233333333 3:-0.794009324 4:1.068460907 5:0.1 6:1.8 7:0.4 8:0.043006993 9:0.005783797
-50.0 1:-0.6225 2:0.265 3:-0.780620629 4:1.03080802 5:0.1 6:2.0 7:0.7 8:0.461363636 9:0.302310406
-50.0 1:-0.55 2:0.183333333 3:-0.786862155 4:0.97260105 5:0.1 6:0.5 7:0.6 8:0.154285714 9:0.19601546
-50.0 1:-0.51 2:0.215 3:-0.790475188 4:1.070531149 5:0.1 6:1.0 7:0.6 8:0.115578947 9:0.278734132
-50.0 1:-0.87 2:0.27 3:-0.807777778 4:0.651821904 5:0.1 6:0.0 7:0.0 8:0.0 9:0.0
-50.0 1:-0.543333333 2:0.136666667 3:-0.757417582 4:1.098467711 5:0.1 6:0.6 7:0.1 8:0.427472527 9:0.258731013
-50.0 1:-0.52 2:0.16 3:-0.755741758 4:1.018854444 5:0.1 6:0.3 7:0.7 8:0.335714286 9:0.356471922
-50.0 1:-0.5325 2:0.18 3:-0.771634615 4:0.924417373 5:0.1 6:0.3 7:0.9 8:0.684615385 9:0.36870826
-50.0 1:-0.566666667 2:0.213333333 3:-0.77952381 4:0.874027305 5:0.1 6:1.8 7:0.0 8:0.314285714 9:0.140559847
-50.0 1:-0.653333333 2:0.213333333 3:-0.775079365 4:0.848774359 5:0.1 6:2.4 7:0.1 8:0.433333333 9:0.054482473
-50.0 1:-0.693333333 2:0.23 3:-0.761992945 4:0.917954433 5:0.1 6:0.4 7:0.6 8:0.221693122 9:0.045704008
-50.0 1:-0.776666667 2:0.273333333 3:-0.789235802 4:0.822505818 5:0.1 6:0.5 7:0.0 8:9.25926E-4 9:0.258901818
-50.0 1:-0.793333333 2:0.26 3:-0.786445947 4:0.718403555 5:0.1 6:0.2 7:0.2 8:0.136695652 9:0.12025043
-50.0 1:-0.803333333 2:0.273333333 3:-0.781719511 4:0.679564807 5:0.1 6:0.1 7:0.2 8:0.087867178 9:0.049670784
-50.0 1:-0.475 2:0.1825 3:-0.780474255 4:1.18322584 5:0.1 6:1.0 7:0.5 8:0.694047619 9:0.454239635
-50.0 1:-0.503333333 2:0.216666667 3:-0.809940184 4:1.050227993 5:0.1 6:0.0 7:0.6 8:0.352842105 9:0.004145672
-50.0 1:-0.496666667 2:0.24 3:-0.811434921 4:1.065632329 5:0.1 6:0.6 7:0.5 8:0.311047619 9:0.129551673
-50.0 1:-0.5675 2:0.2625 3:-0.788776638 4:1.007830831 5:0.1 6:2.2 7:0.1 8:0.585230769 9:0.273420486
-50.0 1:-0.625 2:0.27 3:-0.775608781 4:0.930369255 5:0.1 6:2.5 7:0.2 8:0.218714286 9:0.351913638
-14.034516820819242 1:-0.7775 2:0.295 3:-0.785556682 4:0.802725648 5:0.1 6:0.4 7:0.1 8:0.00483871 9:0.180917939
-50.0 1:-0.4675 2:0.205 3:-0.793968975 4:1.241357375 5:0.1 6:0.1 7:0.4 8:0.134920635 9:0.053077879
-50.0 1:-0.486666667 2:0.2 3:-0.787276094 4:1.166269865 5:0.1 6:0.3 7:0.2 8:0.282727273 9:0.259365424
-50.0 1:-0.4825 2:0.2175 3:-0.779232367 4:1.059209697 5:0.1 6:0.1 7:0.6 8:0.133816425 9:0.210363624
-50.0 1:-0.5375 2:0.24 3:-0.78063194 4:1.012365065 5:0.1 6:1.8 7:0.7 8:0.171538462 9:0.067262024
-11.248119984302033 1:-0.663333333 2:0.273333333 3:-0.779442586 4:1.023143752 5:0.1 6:3.4 7:0.7 8:0.02826087 9:0.071188242
-50.0 1:-0.93 2:0.216666667 3:-0.801612479 4:0.782107527 5:0.1 6:0.0 7:1.4 8:0.292183908 9:0.009096342
-50.0 1:-0.93 2:0.18 3:-0.794142857 4:0.771540498 5:0.1 6:0.0 7:0.6 8:0.136190476 9:0.04520949
-50.0 1:-0.495 2:0.175 3:-0.777171605 4:1.181516872 5:0.1 6:0.9 7:0.5 8:0.042857143 9:0.491201597
-50.0 1:-0.516666667 2:0.21 3:-0.78255117 4:1.014368505 5:0.1 6:0.0 7:0.4 8:0.181798246 9:0.127180259
-50.0 1:-0.516666667 2:0.23 3:-0.782172222 4:1.031437176 5:0.1 6:0.5 7:0.7 8:0.064 9:0.279991321
-50.0 1:-0.506666667 2:0.196666667 3:-0.782918129 4:1.169274864 5:0.1 6:0.5 7:0.0 8:0.300877193 9:0.109744745
-50.0 1:-0.4975 2:0.2075 3:-0.775831808 4:1.084424047 5:0.1 6:0.1 7:0.3 8:0.133043478 9:0.275092934
-50.0 1:-0.51 2:0.225 3:-0.771442919 4:1.044028751 5:0.1 6:0.3 7:0.9 8:0.339766082 9:0.050179224
-50.0 1:-0.536666667 2:0.25 3:-0.765440638 4:1.107947765 5:0.1 6:1.3 7:0.1 8:0.05513834 9:0.214009687
-50.0 1:-0.74 2:0.276666667 3:-0.777210515 4:0.870786536 5:0.1 6:0.6 7:0.3 8:0.017592593 9:0.043998512
-50.0 1:-0.75 2:0.283333333 3:-0.778381226 4:0.860245872 5:0.1 6:0.6 7:0.0 8:0.04137931 9:0.125756972
-50.0 1:-0.496666667 2:0.206666667 3:-0.792016025 4:1.178280819 5:0.1 6:0.6 7:0.2 8:0.235839599 9:0.068697014
-50.0 1:-0.506666667 2:0.206666667 3:-0.795524797 4:1.130758501 5:0.1 6:0.7 7:0.3 8:0.098325359 9:0.223683437
-50.0 1:-0.49 2:0.21 3:-0.793366024 4:1.081162251 5:0.1 6:0.1 7:0.2 8:0.144306418 9:0.103834249
-50.0 1:-0.54 2:0.2175 3:-0.780211262 4:1.067961179 5:0.1 6:1.1 7:0.5 8:0.395614035 9:0.158459679
-50.0 1:-0.476666667 2:0.22 3:-0.779326087 4:1.142968874 5:0.1 6:0.0 7:0.0 8:0.247826087 9:0.12080116
-50.0 1:-0.486666667 2:0.24 3:-0.778581459 4:1.064194342 5:0.1 6:0.1 7:0.9 8:0.323965517 9:0.239942957
-50.0 1:-0.5025 2:0.2 3:-0.77606991 4:1.118206497 5:0.1 6:0.5 7:0.4 8:0.25215311 9:0.067597874
-50.0 1:-0.513333333 2:0.21 3:-0.777807018 4:1.052066921 5:0.1 6:0.0 7:0.4 8:0.25 9:0.028898205
-50.0 1:-0.506666667 2:0.226666667 3:-0.786073684 4:1.060990353 5:0.1 6:0.6 7:0.6 8:0.263789474 9:0.074243886
-50.0 1:-0.503333333 2:0.196666667 3:-0.782936508 4:1.067626585 5:0.1 6:0.5 7:0.2 8:0.354761905 9:0.235773037
-50.0 1:-0.5225 2:0.2375 3:-0.800168782 4:0.981115896 5:0.1 6:0.2 7:1.0 8:0.416091954 9:0.024007432
-50.0 1:-0.5525 2:0.28 3:-0.80778783 4:0.993299165 5:0.1 6:1.2 7:1.5 8:0.033333333 9:0.08185177
-18.89573643410031 1:-0.89 2:0.32 3:-0.835826331 4:0.733880523 5:0.1 6:0.0 7:0.6 8:0.048319328 9:0.006086002
-50.0 1:-0.89 2:0.31 3:-0.838298319 4:0.726985695 5:0.1 6:0.0 7:0.6 8:0.051680672 9:0.029196961
-50.0 1:-0.89 2:0.28 3:-0.835714286 4:0.741584176 5:0.1 6:0.0 7:0.0 8:0.0 9:0.0