svm_type c_svc
kernel_type rbf
gamma 0.5
nr_class 2
total_sv 221
rho -0.059365966859748966
label 0 1
probA -2.9690722001810608
probB 0.3997501813117389
nr_sv 115 106
SV
1.625773323005036 1:-0.959904 2:-0.951233 3:-0.893853 4:-0.734019 5:-0.959997 6:-0.891278 7:-0.661354 8:-0.896959 9:-0.731191 10:-0.75848 11:-0.809884 12:-0.993722 13:-0.826504 14:-0.822267 15:-0.837583 16:-0.917187 17:-0.814693 18:0.578947 19:0.476556 20:1.0 21:-1.0 22:-1.0 23:-1.0
0.5415386543119967 1:-0.954691 2:-0.921183 3:-0.904853 4:-0.752041 5:-0.954796 6:-0.993265 7:-0.41633 8:-0.955007 9:-0.964503 10:-0.980831 11:-0.845345 12:-0.875266 13:-0.962679 14:-0.906528 15:-0.964435 16:-0.752947 17:-0.954714 18:0.578947 19:0.476556 20:1.0 21:-1.0 22:-1.0 23:-1.0
8.0 1:-0.947378 2:-0.935395 3:-0.886069 4:-0.853462 5:-0.9475 6:-0.983836 7:-0.85232 8:-0.784659 9:-0.964747 10:-0.994822 11:-0.876708 12:-0.967352 13:-0.930712 14:-0.925412 15:-0.964678 16:-0.907659 17:-0.784391 18:0.578947 19:0.476556 20:1.0 21:-1.0 22:-1.0 23:-1.0
1.0557854357915426 1:-0.928432 2:-0.910687 3:-0.86814 4:-0.713299 5:-0.928596 6:-0.581614 7:-0.447178 8:-0.372193 9:-0.266575 10:-0.440485 11:-0.67973 12:-0.970819 13:-0.805562 14:-0.440485 15:-0.266531 16:-0.355013 17:-0.371988 18:0.754386 19:0.152271 20:1.0 21:-0.249497 22:-0.925926 23:-0.514431
0.8476374296786922 1:-0.91544 2:-0.902556 3:-0.908427 4:-0.75207 5:-0.915633 6:-0.547602 7:-0.535806 8:-0.881656 9:-0.911821 10:-0.84083 11:-0.678409 12:-0.985555 13:-0.734192 14:-0.84083 15:-0.911754 16:-0.972845 17:-0.881374 18:0.561404 19:0.310168 20:1.0 21:1.0 22:-0.222222 23:1.0
1.652654782000743 1:-0.915402 2:-0.9183 3:-0.845445 4:-0.919123 5:-0.915594 6:-0.917737 7:-0.911862 8:-0.683416 9:-0.792693 10:-0.80517 11:-0.94384 12:-0.996437 13:-0.869276 14:-0.80517 15:-0.79263 16:-0.752093 17:-0.683163 18:0.763158 19:0.695881 20:1.0 21:0.335711 22:-0.925926 23:0.0856625
7.149620697362477 1:-0.937057 2:-0.939854 3:-0.86399 4:-0.92401 5:-0.937202 6:-0.567181 7:-0.947999 8:-0.842191 9:-0.898928 10:-0.971934 11:-0.914791 12:-0.912628 13:-0.936996 14:-0.971934 15:-0.898862 16:-0.857005 17:-0.841915 18:0.675439 19:0.595282 20:1.0 21:-0.778024 22:-0.62963 23:-0.89533
7.085636299037216 1:-0.932217 2:-0.907853 3:-0.867088 4:-0.826361 5:-0.932373 6:-0.559629 7:-0.548145 8:-0.744977 9:-0.661729 10:-0.740531 11:-0.678476 12:-0.708036 13:-0.631815 14:-0.740531 15:-0.661671 16:-0.699985 17:-0.744716 18:0.622807 19:0.596752 20:1.0 21:-0.777634 22:-0.814815 23:-0.994279
6.8300496974074445 1:-0.926657 2:-0.907853 3:-0.934695 4:-0.663248 5:-0.926824 6:-0.715351 7:-0.328682 8:-0.850933 9:-0.887464 10:-0.908951 11:-0.989416 12:-0.958531 13:-0.827968 14:-0.908951 15:-0.887398 16:-0.878435 17:-0.850656 18:0.578947 19:0.50227 20:1.0 21:-0.376541 22:-0.703704 23:-0.463998
8.0 1:-0.85672 2:-0.855892 3:-0.794417 4:-0.921417 5:-0.857036 6:-0.876557 7:-0.744644 8:-0.702066 9:-0.700881 10:-0.784644 11:-0.898003 12:-0.968877 13:-0.985134 14:-0.784644 15:-0.700822 16:-0.65759 17:-0.701811 18:0.754386 19:0.782168 20:1.0 21:0.0586401 22:-1.0 23:-0.0338164
1.6035593117527924 1:-0.87188 2:-0.870428 3:-0.798336 4:-0.902169 5:-0.872165 6:-0.744552 7:-0.997062 8:-0.95479 9:-0.981283 10:-0.908161 11:-0.948703 12:-0.972317 13:-0.925585 14:-0.908161 15:-0.981214 16:-0.968481 17:-0.954497 18:0.239766 19:-0.198298 20:1.0 21:-0.91213 22:0.037037 23:-0.932225
0.7643775859264477 1:-0.872998 2:-0.870256 3:-0.799595 4:-0.935797 5:-0.873281 6:-0.984846 7:-0.884931 8:-0.859425 9:-0.785023 10:-0.872739 11:-0.828369 12:-0.795344 13:-0.926265 14:-0.872739 15:-0.78496 16:-0.85076 17:-0.859147 18:0.605263 19:-0.0383516 20:1.0 21:-0.531131 22:1.0 23:-0.949275
5.8350012677047065 1:-0.855406 2:-0.841905 3:-0.781987 4:-0.888271 5:-0.855725 6:-0.908116 7:-0.903489 8:-0.897458 9:-0.870115 10:-0.922544 11:-0.995224 12:-0.878373 13:-0.98884 14:-0.922544 15:-0.87005 16:-0.852948 17:-0.897174 18:0.640351 19:0.505699 20:1.0 21:-0.651626 22:-0.814815 23:-0.89694
0.4908961005588038 1:-0.844826 2:-0.829668 3:-0.779624 4:-0.863542 5:-0.845166 6:-0.382258 7:-0.497368 8:-0.759015 9:-0.653595 10:-0.897522 11:-0.826417 12:-0.936787 13:-0.826694 14:-0.897522 15:-0.653537 16:-0.881331 17:-0.758751 18:0.54386 19:0.174586 20:1.0 21:-0.45675 22:-0.962963 23:-0.516908
8.0 1:-0.836509 2:-0.828424 3:-0.77279 4:-0.878116 5:-0.836865 6:-0.895415 7:-0.899816 8:-0.698103 9:-0.871067 10:-0.900361 11:-0.878432 12:-0.858589 13:-0.930859 14:-0.900361 15:-0.871002 16:-0.707257 17:-0.697848 18:0.684211 19:0.564821 20:1.0 21:-0.682533 22:-0.518519 23:-0.913043
5.729382299335529 1:-0.823616 2:-0.81891 3:-0.78028 4:-0.882016 5:-0.823998 6:-0.738009 7:-0.604358 8:-0.818445 9:-0.913851 10:-0.999294 11:-0.957959 12:-0.998895 13:-0.899988 14:-0.999294 15:-0.913785 16:-0.994916 17:-0.818173 18:0.74269 19:0.360869 20:1.0 21:-0.425336 22:-0.814815 23:-0.585812
8.0 1:-0.819724 2:-0.819895 3:-0.749567 4:-0.941735 5:-0.820114 6:-0.623322 7:-0.871074 8:-0.87248 9:-0.845816 10:-0.917136 11:-0.905046 12:-0.906505 13:-0.900478 14:-0.917136 15:-0.845752 16:-0.862342 17:-0.8722 18:0.798246 19:0.56984 20:1.0 21:-0.31696 22:-0.962963 23:-0.235105
8.0 1:-0.814873 2:-0.820634 3:-0.760662 4:-0.900665 5:-0.815272 6:-0.631982 7:-0.622965 8:-0.965164 9:-0.944277 10:-0.905147 11:-0.964787 12:-0.985784 13:-0.939655 14:-0.905147 15:-0.944209 16:-0.903095 17:-0.96487 18:0.777778 19:0.620144 20:1.0 21:-0.395482 22:-0.962963 23:-0.492754
4.111747803901566 1:-0.81907 2:-0.822006 3:-0.752136 4:-0.920583 5:-0.819462 6:-0.630009 7:-0.623748 8:-0.830435 9:-0.763683 10:-0.837961 11:-0.831515 12:-0.924146 13:-0.86037 14:-0.837961 15:-0.763621 16:-0.828355 17:-0.83016 18:0.54386 19:0.16278 20:1.0 21:-0.343225 22:-0.333333 23:-0.434922
0.9723754174203353 1:-0.781237 2:-0.784252 3:-0.715563 4:-0.922834 5:-0.7817 6:-0.620436 7:-0.870731 8:-0.914376 9:-0.898859 10:-0.953939 11:-0.948878 12:-0.975371 13:-0.99823 14:-0.953939 15:-0.898793 16:-0.964718 17:-0.914089 18:0.54386 19:0.182579 20:1.0 21:0.331726 22:-0.703704 23:-0.0237345
2.502639124672518 1:-0.747693 2:-0.754539 3:-0.687793 4:-0.902788 5:-0.748217 6:-0.754943 7:-0.749982 8:-0.698402 9:-0.897025 10:-0.854652 11:-0.998759 12:-0.91934 13:-0.962318 14:-0.854652 15:-0.896959 16:-0.756564 17:-0.698148 18:0.54386 19:0.321124 20:1.0 21:-0.195547 22:-0.962963 23:-0.28744
2.012342761362483 1:-0.750258 2:-0.734335 3:-0.687793 4:-0.90293 5:-0.750777 6:-0.864146 7:-0.730493 8:-0.859492 9:-0.896132 10:-0.973575 11:-0.796174 12:-0.987016 13:-0.768284 14:-0.973575 15:-0.896066 16:-0.85084 17:-0.859213 18:0.552632 19:0.550628 20:1.0 21:-0.780236 22:-0.851852 23:-0.772361
3.298460681307623 1:-0.752227 2:-0.756267 3:-0.687376 4:-0.948275 5:-0.752742 6:-0.754221 7:-0.878027 8:-0.99199 9:-0.994175 10:-0.974089 11:-0.945383 12:-0.958687 13:-0.888791 14:-0.974089 15:-0.994105 16:-0.973192 17:-0.991692 18:0.567251 19:0.558809 20:1.0 21:-0.763761 22:-0.962963 23:-0.798712
3.3110510414986507 1:-0.753955 2:-0.755918 3:-0.698356 4:-0.89834 5:-0.754468 6:-0.881657 7:-0.752038 8:-0.991424 9:-0.79578 10:-0.960957 11:-0.866312 12:-0.887536 13:-0.891149 14:-0.960957 15:-0.795717 16:-0.972244 17:-0.991126 18:0.54386 19:0.433284 20:1.0 21:-0.589633 22:-0.925926 23:-0.624968
8.0 1:-0.742249 2:-0.731814 3:-0.685648 4:-0.864705 5:-0.742782 6:-0.623082 7:-0.614641 8:-0.946698 9:-0.742111 10:-0.976444 11:-0.821782 12:-0.999753 13:-0.878378 14:-0.976444 15:-0.74205 16:-0.914851 17:-0.946406 18:0.520468 19:0.493787 20:1.0 21:-0.0125976 22:-0.703704 23:-0.826087
8.0 1:-0.73894 2:-0.741053 3:-0.674676 4:-0.911128 5:-0.73948 6:-0.35681 7:-0.597013 8:-0.853164 9:-0.792786 10:-0.995758 11:-0.984701 12:-0.950858 13:-0.95087 14:-0.995758 15:-0.792723 16:-0.980571 17:-0.852887 18:0.54386 19:0.443167 20:1.0 21:-0.464794 22:-0.851852 23:-0.511157
8.0 1:-0.730074 2:-0.733374 3:-0.666289 4:-0.945272 5:-0.73063 6:-0.76798 7:-0.89017 8:-0.987894 9:-0.925722 10:-0.892076 11:-0.934672 12:-0.906784 13:-0.975995 14:-0.892076 15:-0.925655 16:-0.918868 17:-0.987596 18:0.517544 19:0.352173 20:1.0 21:-0.279647 22:-0.962963 23:-0.341356
8.0 1:-0.728981 2:-0.724505 3:-0.666289 4:-0.943024 5:-0.729538 6:-0.768605 7:-0.890905 8:-0.848718 9:-0.9014 10:-0.81946 11:-0.983373 12:-0.871537 13:-0.951305 14:-0.81946 15:-0.901334 16:-0.883906 17:-0.848441 18:0.532164 19:0.588879 20:1.0 21:-0.310737 22:-0.962963 23:-0.515772
8.0 1:-0.726683 2:-0.724505 3:-0.668295 4:-0.892243 5:-0.727244 6:-0.876028 7:-0.872689 8:-0.954674 9:-0.864186 10:-0.890143 11:-0.970052 12:-0.944128 13:-0.94469 14:-0.890143 15:-0.864121 16:-0.934427 17:-0.954381 18:0.497076 19:0.738135 20:1.0 21:-0.863556 22:-0.851852 23:-0.891837
8.0 1:-0.724922 2:-0.725162 3:-0.668295 4:-0.885745 5:-0.725486 6:-0.857844 7:-0.762517 8:-0.940187 9:-0.962496 10:-0.915817 11:-0.772136 12:-0.87439 13:-0.716269 14:-0.915817 15:-0.962427 16:-0.947918 17:-0.939896 18:0.482456 19:0.607148 20:1.0 21:-0.645424 22:-0.962963 23:-0.657648
8.0 1:-0.723701 2:-0.725449 3:-0.658486 4:-0.935536 5:-0.724267 6:-0.850195 7:-0.849969 8:-0.98458 9:-0.933764 10:-0.929462 11:-0.967 12:-0.936883 13:-0.954343 14:-0.929462 15:-0.933697 16:-0.95036 17:-0.984283 18:0.377193 19:0.471577 20:1.0 21:-0.41769 22:-0.703704 23:-0.413559
0.7645620051553011 1:-0.715658 2:-0.719043 3:-0.662259 4:-0.921515 5:-0.716238 6:-0.647857 7:-0.638634 8:-0.934791 9:-0.962797 10:-0.961379 11:-0.955196 12:-0.988913 13:-0.994395 14:-0.961379 15:-0.962729 16:-0.943274 17:-0.934502 18:0.5 19:0.0558154 20:1.0 21:0.0907652 22:-0.555556 23:0.14919
2.463087259856911 1:-0.710729 2:-0.710872 3:-0.654793 4:-0.918833 5:-0.711317 6:-0.487661 7:-0.731669 8:-0.95111 9:-0.959293 10:-0.943706 11:-0.799286 12:-0.867265 13:-0.741426 14:-0.943706 15:-0.959225 16:-0.994782 17:-0.950818 18:-0.368421 19:-0.510745 20:1.0 21:-0.815065 22:-1.0 23:-0.80943
6.332474426556938 1:-0.6893 2:-0.682554 3:-0.631681 4:-0.861762 5:-0.689924 6:-0.49276 7:-0.35101 8:-0.582939 9:-0.899555 10:-0.779006 11:-0.96364 12:-0.819726 13:-0.883609 14:-0.779006 15:-0.899489 16:-0.716078 17:-0.582701 18:0.730994 19:0.500527 20:1.0 21:-0.719806 22:0.0740741 23:-0.930079
0.6864018547194035 1:-0.61557 2:-0.612073 3:-0.548543 4:-0.942283 5:-0.616308 6:-0.8653 7:-0.861623 8:-0.867252 9:-0.810807 10:-0.938544 11:-0.839174 12:-0.999869 13:-0.80487 14:-0.938544 15:-0.810744 16:-0.928889 17:-0.866972 18:-0.22807 19:-0.509857 20:1.0 21:-0.954494 22:-0.555556 23:-0.998474
0.11902134506270771 1:-0.620051 2:-0.612073 3:-0.584425 4:-0.895028 5:-0.620783 6:-0.501371 7:-0.491982 8:-0.723263 9:-0.93902 10:-0.768689 11:-0.97358 12:-0.837145 13:-0.956383 14:-0.768689 15:-0.938953 16:-0.743246 17:-0.723005 18:-0.22807 19:-0.487521 20:1.0 21:-0.919169 22:-1.0 23:-0.962823
7.456136696091641 1:-0.625226 2:-0.627554 3:-0.563617 4:-0.922688 5:-0.62595 6:-0.754654 7:-0.879055 8:-0.815498 9:-0.902468 10:-0.837892 11:-0.971474 12:-0.982161 13:-0.922467 14:-0.837892 15:-0.902401 16:-0.781717 17:-0.815226 18:0.520468 19:0.470707 20:1.0 21:-0.641733 22:-0.888889 23:-0.673913
8.0 1:-0.620577 2:-0.628018 3:-0.563617 4:-0.933666 5:-0.621308 6:-0.889354 7:-0.889338 8:-0.942868 9:-0.893997 10:-0.90731 11:-0.758238 12:-0.822258 13:-0.749976 14:-0.90731 15:-0.893931 16:-0.977609 17:-0.942576 18:0.614035 19:0.649015 20:1.0 21:-0.604397 22:-0.592593 23:-0.572119
8.0 1:-0.616883 2:-0.628268 3:-0.554019 4:-0.964774 5:-0.61762 6:-0.986049 7:-0.987759 8:-0.860724 9:-0.93764 10:-0.894723 11:-0.950937 12:-0.957663 13:-0.974519 14:-0.894723 15:-0.937572 16:-0.852067 17:-0.860445 18:0.473684 19:0.491866 20:1.0 21:0.0400141 22:-0.222222 23:-0.187371
2.0899069650948183 1:-0.623916 2:-0.628268 3:-0.566818 4:-0.923222 5:-0.624642 6:-0.834031 7:-0.909756 8:-0.750073 9:-0.747785 10:-0.668382 11:-0.707545 12:-0.742785 13:-0.641953 14:-0.668382 15:-0.747724 16:-0.687735 17:-0.749811 18:0.321637 19:0.422312 20:1.0 21:0.226887 22:-0.407407 23:-0.606625
2.1027566439143826 1:-0.632098 2:-0.632177 3:-0.570209 4:-0.93098 5:-0.632812 6:-0.938904 7:-0.938303 8:-0.8881 9:-0.860472 10:-0.843545 11:-0.74642 12:-0.936053 13:-0.75898 14:-0.843545 15:-0.860408 16:-0.891459 17:-0.887817 18:0.298246 19:0.470175 20:1.0 21:0.383661 22:-0.0740741 23:0.26294
2.5322139697896473 1:-0.763297 2:-0.766168 3:-0.70822 4:-0.926478 5:-0.763793 6:-0.868812 7:-0.994614 8:-0.910513 9:-0.965501 10:-0.983976 11:-0.967128 12:-0.936424 13:-0.982133 14:-0.983976 15:-0.965433 16:-0.964211 17:-0.910227 18:0.450292 19:0.0700919 20:1.0 21:-0.62554 22:-0.37037 23:-0.721293
0.032821845255393 1:-0.781024 2:-0.768976 3:-0.710984 4:-0.899344 5:-0.781487 6:-0.619474 7:-0.868968 8:-0.998235 9:-0.908038 10:-0.898098 11:-0.805336 12:-0.992814 13:-0.886586 14:-0.898098 15:-0.907971 16:-0.997852 17:-0.997935 18:0.660819 19:0.305624 20:1.0 21:-0.541659 22:-0.851852 23:-0.599034
7.315794460558291 1:-0.800435 2:-0.806098 3:-0.726551 4:-0.941161 5:-0.800862 6:-0.879059 7:-0.8769 8:-0.835214 9:-0.793691 10:-0.940431 11:-0.922921 12:-0.954411 13:-0.933033 14:-0.940431 15:-0.793628 16:-0.903122 17:-0.834939 18:0.637427 19:0.386002 20:1.0 21:-0.109654 22:-0.814815 23:-0.2657
1.0418622281520238 1:-0.83563 2:-0.835007 3:-0.764935 4:-0.908853 5:-0.835989 6:-0.358926 7:-0.600637 8:-0.688961 9:-0.65168 10:-0.813646 11:-0.977128 12:-0.8495 13:-0.97602 14:-0.813646 15:-0.651622 16:-0.64482 17:-0.688708 18:0.131579 19:0.123684 20:1.0 21:0.730016 22:-0.777778 23:0.027668
8.0 1:-0.861698 2:-0.869582 3:-0.793368 4:-0.955814 5:-0.862004 6:-0.774667 7:-0.775248 8:-0.994139 9:-0.955313 10:-0.930835 11:-0.836075 12:-0.859253 13:-0.848769 14:-0.930835 15:-0.955245 16:-0.903309 17:-0.99384 18:0.660819 19:0.985363 20:1.0 21:-0.671451 22:-0.666667 23:-0.879227
8.0 1:-0.865897 2:-0.872436 3:-0.796783 4:-0.948786 5:-0.866194 6:-0.909366 7:-0.909903 8:-0.91411 9:-0.809194 10:-0.865352 11:-0.945336 12:-0.954697 13:-0.934638 14:-0.865352 15:-0.809131 16:-0.907846 17:-0.913823 18:0.789474 19:0.929523 20:1.0 21:-0.802054 22:-0.740741 23:-0.882246
7.413506793934396 1:-0.865206 2:-0.869278 3:-0.796783 4:-0.920061 5:-0.865505 6:-0.798768 7:-0.946285 8:-0.862573 9:-0.998921 10:-0.987451 11:-0.822473 12:-0.959495 13:-0.783254 14:-0.987451 15:-0.998851 16:-0.84266 17:-0.862293 18:0.807018 19:0.8188 20:1.0 21:-0.461085 22:-0.851852 23:-0.44953
8.0 1:-0.901931 2:-0.906827 3:-0.83381 4:-0.943135 5:-0.902153 6:-0.73902 7:-0.605582 8:-0.997352 9:-0.871415 10:-0.957697 11:-0.962943 12:-0.935696 13:-0.933756 14:-0.957697 15:-0.87135 16:-0.927715 17:-0.997053 18:0.590643 19:0.355034 20:1.0 21:-0.373377 22:-0.518519 23:-0.545894
7.228718567382766 1:-0.903302 2:-0.90888 3:-0.83516 4:-0.935827 5:-0.903521 6:-0.864627 7:-0.863729 8:-0.923718 9:-0.979588 10:-0.989008 11:-0.958227 12:-0.963256 13:-0.883193 14:-0.989008 15:-0.979519 16:-0.976127 17:-0.92343 18:0.707602 19:0.42062 20:1.0 21:-0.667907 22:-0.888889 23:-0.869346
8.0 1:-0.894223 2:-0.889477 3:-0.826543 4:-0.931022 5:-0.894462 6:-0.877231 7:-0.869017 8:-0.87308 9:-0.734359 10:-0.807471 11:-0.922713 12:-0.895915 13:-0.995798 14:-0.807471 15:-0.734299 16:-0.800319 17:-0.872799 18:0.520468 19:0.349561 20:1.0 21:-0.664202 22:-0.777778 23:-0.749482
8.0 1:-0.894722 2:-0.889477 3:-0.826543 4:-0.917044 5:-0.894959 6:-0.989272 7:-0.98957 8:-0.836313 9:-0.954001 10:-0.918892 11:-0.934745 12:-0.87027 13:-0.888705 14:-0.918892 15:-0.953933 16:-0.873645 17:-0.836037 18:0.555556 19:0.407794 20:1.0 21:-0.89893 22:-0.740741 23:-0.90942
5.182651140239285 1:-0.890725 2:-0.894615 3:-0.812922 4:-0.93436 5:-0.890971 6:-0.881416 7:-0.992166 8:-0.990642 9:-0.885224 10:-0.937601 11:-0.935684 12:-0.936371 13:-0.925646 14:-0.937601 15:-0.885158 16:-0.992127 17:-0.990343 18:0.614035 19:0.328965 20:1.0 21:-0.368623 22:-0.703704 23:-0.47412
2.670913296134363 1:-0.90513 2:-0.901489 3:-0.839274 4:-0.880546 5:-0.905345 6:-0.602107 7:-0.982323 8:-0.664649 9:-0.832031 10:-0.848531 11:-0.999403 12:-0.951706 13:-0.983664 14:-0.848531 15:-0.831967 16:-0.663048 17:-0.6644 18:0.605263 19:0.399265 20:1.0 21:-0.446886 22:-0.555556 23:-0.770751
8.0 1:-0.906736 2:-0.91237 3:-0.839274 4:-0.909065 5:-0.906947 6:-0.624284 7:-0.618558 8:-0.957821 9:-0.93576 10:-0.878576 11:-0.874608 12:-0.94142 13:-0.82188 14:-0.878576 15:-0.935692 16:-0.963184 17:-0.957528 18:0.497076 19:0.394697 20:1.0 21:-0.427055 22:-0.666667 23:-0.516469
5.867683143094644 1:-0.914455 2:-0.91582 3:-0.842252 4:-0.958761 5:-0.91465 6:-0.85616 7:-0.983597 8:-0.881156 9:-0.987479 10:-0.952827 11:-0.95042 12:-0.987705 13:-0.980222 14:-0.952827 15:-0.98741 16:-0.97578 17:-0.880874 18:0.464912 19:0.20014 20:1.0 21:-0.220984 22:-0.259259 23:-0.379751
8.0 1:-0.921671 2:-0.928274 3:-0.85446 4:-0.927442 5:-0.92185 6:-0.611055 7:-0.606317 8:-0.818795 9:-0.936827 10:-0.855181 11:-0.950836 12:-0.992655 13:-0.94393 14:-0.855181 15:-0.93676 16:-0.853735 17:-0.818522 18:0.415205 19:0.397743 20:1.0 21:-0.285418 22:-0.555556 23:-0.456522
6.896577585086543 1:-0.922319 2:-0.917146 3:-0.85446 4:-0.929457 5:-0.922497 6:-0.99086 7:-0.990011 8:-0.996337 9:-0.977651 10:-0.880755 11:-0.802023 12:-0.93345 13:-0.802138 14:-0.880755 15:-0.977582 16:-0.932586 17:-0.996037 18:0.461988 19:0.529276 20:1.0 21:-0.321123 22:-0.888889 23:-0.529791
2.770679700997901 1:-0.933941 2:-0.943086 3:-0.86814 4:-0.914389 5:-0.934093 6:-0.61322 7:-0.602889 8:-0.990658 9:-0.923866 10:-0.889499 11:-0.993414 12:-0.89099 13:-0.981551 14:-0.889499 15:-0.923799 16:-0.919709 17:-0.99036 18:0.666667 19:0.239022 20:1.0 21:-0.524111 22:-1.0 23:-0.619382
4.243557178284812 1:-0.95211 2:-0.949985 3:-0.874927 4:-0.925248 5:-0.952222 6:-0.950931 7:-0.923369 8:-0.961418 9:-0.9537 10:-0.96411 11:-0.903195 12:-0.960788 13:-0.91957 14:-0.96411 15:-0.953632 16:-0.979877 17:-0.961124 18:0.754386 19:0.343063 20:1.0 21:-0.813874 22:-1.0 23:-0.967062
0.06733200714365555 1:-0.973013 2:-0.983328 3:-0.898261 4:-0.949891 5:-0.973076 6:-0.852793 7:-0.980414 8:-0.984847 9:-0.895145 10:-0.911659 11:-0.970421 12:-0.991501 13:-0.97259 14:-0.911659 15:-0.895079 16:-0.945196 17:-0.984549 18:0.692982 19:0.188129 20:1.0 21:-0.75645 22:-0.592593 23:-0.727982
8.0 1:-0.963061 2:-0.964168 3:-0.894512 4:-0.914641 5:-0.963148 6:-0.981238 7:-0.981883 8:-0.927948 9:-0.979739 10:-0.968306 11:-0.96087 12:-0.995745 13:-0.954668 14:-0.968306 15:-0.97967 16:-0.944689 17:-0.927659 18:0.640351 19:0.394292 20:1.0 21:-0.50978 22:-0.814815 23:-0.572312
4.325543821488265 1:-0.93084 2:-0.925494 3:-0.877107 4:-0.878151 5:-0.930999 6:-0.737961 7:-0.881063 8:-0.905135 9:-0.790767 10:-0.727399 11:-0.647281 12:-0.779935 13:-0.696191 14:-0.727399 15:-0.790704 16:-0.853949 17:-0.904849 18:0.450292 19:0.425433 20:1.0 21:-0.134155 22:-0.703704 23:-0.229007
0.0962134711982568 1:-0.92515 2:-0.925445 3:-0.852144 4:-0.900612 5:-0.925321 6:-0.749796 7:-0.994859 8:-0.958587 9:-0.943476 10:-0.920005 11:-0.740773 12:-0.97381 13:-0.830449 14:-0.920005 15:-0.943409 16:-0.896423 17:-0.958293 18:0.131579 19:-0.0157311 20:1.0 21:-0.289228 22:0.148148 23:-0.257246
8.0 1:-0.91458 2:-0.897423 3:-0.854956 4:-0.884061 5:-0.914774 6:-0.870352 7:-0.739748 8:-0.77515 9:-0.741728 10:-0.764332 11:-0.754127 12:-0.705592 13:-0.758356 14:-0.764332 15:-0.741667 16:-0.815505 17:-0.774884 18:0.345029 19:0.348389 20:1.0 21:-0.228355 22:-0.592593 23:-0.412213
8.0 1:-0.924219 2:-0.91853 3:-0.856143 4:-0.926621 5:-0.924393 6:-0.708953 7:-0.9574 8:-0.78699 9:-0.830244 10:-0.93724 11:-0.914382 12:-0.872879 13:-0.914186 14:-0.93724 15:-0.83018 16:-0.81824 17:-0.786722 18:0.54386 19:0.569733 20:1.0 21:-0.855455 22:-0.444444 23:-0.915005
0.5481007018527251 1:-0.924069 2:-0.923868 3:-0.856143 4:-0.926367 5:-0.924242 6:-0.936258 7:-0.805117 8:-0.70463 9:-0.665152 10:-0.806044 11:-0.779071 12:-0.829203 13:-0.772615 14:-0.806044 15:-0.665094 16:-0.739216 17:-0.704375 18:0.692982 19:0.600802 20:1.0 21:-0.857902 22:-0.925926 23:-0.855521
0.032780474130687534 1:-0.965555 2:-0.964234 3:-0.900842 4:-0.875503 5:-0.965635 6:-0.901862 7:-0.897662 8:-0.597392 9:-0.641677 10:-0.920074 11:-0.876849 12:-0.974651 13:-0.853743 14:-0.920074 15:-0.64162 16:-0.617612 17:-0.597153 18:0.309942 19:0.141938 20:1.0 21:0.183293 22:-0.185185 23:0.0831426
2.58147304685033 1:-0.906336 2:-0.879889 3:-0.849853 4:-0.650318 5:-0.906547 6:-0.629817 7:-0.491101 8:-0.389478 9:-0.201337 10:-0.2245 11:-0.0972749 12:-0.509012 13:-0.0482572 14:-0.2245 15:-0.201295 16:-0.263246 17:-0.38927 18:0.251462 19:0.0482469 20:1.0 21:-0.596681 22:-0.703704 23:-0.681478
0.3331142994846962 1:-0.851942 2:-0.829586 3:-0.793487 4:-0.726184 5:-0.852268 6:-0.574253 7:-0.309046 8:-0.488889 9:-0.374934 10:-0.50448 11:-0.814331 12:-0.887678 13:-0.979168 14:-0.50448 15:-0.374886 16:-0.548943 17:-0.488666 18:0.192982 19:0.00165239 20:1.0 21:-0.849952 22:-0.888889 23:-0.86715
0.9639875096408627 1:-0.865983 2:-0.856545 3:-0.812779 4:-0.790172 5:-0.86628 6:-0.937701 7:-0.931203 8:-0.700667 9:-0.453575 10:-0.662468 11:-0.451617 12:-0.663559 13:-0.439472 14:-0.662468 15:-0.453524 16:-0.735253 17:-0.700412 18:-0.122807 19:-0.244235 20:1.0 21:-0.557342 22:-0.0740741 23:-0.852843
7.65290230570951 1:-0.857381 2:-0.840263 3:-0.791796 4:-0.847493 5:-0.857695 6:-0.604705 7:-0.854229 8:-0.969094 9:-0.83456 10:-0.868689 11:-0.943753 12:-0.737135 13:-0.969711 14:-0.868689 15:-0.834497 16:-0.951881 17:-0.968799 18:0.309942 19:0.18853 20:1.0 21:-0.692931 22:-0.740741 23:-0.719807
0.7806269752749729 1:-0.86032 2:-0.847408 3:-0.817926 4:-0.759768 5:-0.860628 6:-0.721461 7:-0.326723 8:-0.486858 9:-0.196057 10:-0.501112 11:-0.32905 12:-0.595674 13:-0.400608 14:-0.501112 15:-0.196015 16:-0.475257 17:-0.486635 18:0.356725 19:0.0750121 20:1.0 21:-0.390619 22:-1.0 23:-0.690635
0.7040479912018239 1:-0.857806 2:-0.840604 3:-0.792788 4:-0.800597 5:-0.85812 6:-0.244961 7:-0.35243 8:-0.288801 9:-0.429845 10:-0.586945 11:-0.583166 12:-0.682302 13:-0.702819 14:-0.586945 15:-0.429795 16:-0.598289 17:-0.288608 18:0.274854 19:-0.0865458 20:1.0 21:-0.691449 22:-0.62963 23:-0.742661
5.089381717621646 1:-0.863262 2:-0.843753 3:-0.815185 4:-0.784879 5:-0.863565 6:-0.603117 7:-0.891052 8:-0.890747 9:-0.907701 10:-0.911943 11:-0.916522 12:-0.745829 13:-0.878378 14:-0.911943 15:-0.907635 16:-0.965892 17:-0.890464 18:0.157895 19:0.00523967 20:1.0 21:-0.463596 22:-0.259259 23:-0.536232
0.03899006627276105 1:-0.846332 2:-0.81969 3:-0.794218 4:-0.568522 5:-0.846668 6:-0.719199 7:-0.721043 8:-0.775001 9:-0.836301 10:-0.589821 11:-0.238596 12:-0.685193 13:-0.165052 14:-0.589821 15:-0.836237 16:-0.741525 17:-0.774735 18:0.263158 19:0.0996822 20:1.0 21:-0.810257 22:-0.851852 23:-0.863124
0.155423543152877 1:-0.851476 2:-0.821755 3:-0.791597 4:-0.84162 5:-0.851802 6:-1.92428E-4 7:-0.359236 8:-0.818395 9:-0.714957 10:-0.939457 11:-0.833486 12:-0.873472 13:-0.904319 14:-0.939457 15:-0.714897 16:-0.847557 17:-0.818123 18:0.309942 19:0.0182673 20:1.0 21:-0.50287 22:-0.962963 23:-0.559466
8.0 1:-0.873635 2:-0.867242 3:-0.807164 4:-0.883583 5:-0.873916 6:-0.911724 7:-0.835818 8:-0.665298 9:-0.692352 10:-0.752213 11:-0.648736 12:-0.682333 13:-0.634131 14:-0.752213 15:-0.692293 16:-0.655402 17:-0.665049 18:0.461988 19:0.379925 20:1.0 21:-0.86903 22:-0.62963 23:-0.981061
8.0 1:-0.882345 2:-0.889128 3:-0.809745 4:-0.923703 5:-0.882608 6:-0.937605 7:-0.938107 8:-0.848885 9:-0.836115 10:-0.834226 11:-0.818006 12:-0.925926 13:-0.735533 14:-0.834226 15:-0.836051 16:-0.828088 17:-0.848608 18:0.54386 19:0.51015 20:1.0 21:-0.376131 22:-0.814815 23:-0.465525
8.0 1:-0.883355 2:-0.88765 3:-0.809745 4:-0.947085 5:-0.883616 6:-0.796363 7:-0.534386 8:-0.950894 9:-0.989881 10:-0.974043 11:-0.888043 12:-0.936607 13:-0.947317 14:-0.974043 15:-0.989812 16:-0.984294 17:-0.950601 18:0.473684 19:0.64958 20:1.0 21:-0.48705 22:-0.407407 23:-0.6407
3.7041234885988166 1:-0.896305 2:-0.886952 3:-0.834088 4:-0.84895 5:-0.896539 6:-0.869871 7:-0.608226 8:-0.86542 9:-0.525625 10:-0.883194 11:-0.696391 12:-0.971956 13:-0.756402 14:-0.883194 15:-0.525572 16:-0.969295 17:-0.86514 18:-0.0175439 19:0.2114 20:1.0 21:-0.780841 22:-0.925926 23:-0.982163
3.028228962366971 1:-0.89737 2:-0.886952 3:-0.834088 4:-0.847495 5:-0.897601 6:-0.66532 7:-0.786657 8:-0.948196 9:-0.701995 10:-0.870983 11:-0.740457 12:-0.967317 13:-0.788118 14:-0.870983 15:-0.701936 16:-0.895129 17:-0.947904 18:-0.0175439 19:0.184378 20:1.0 21:-0.715978 22:-0.962963 23:-0.748207
0.9095832795944783 1:-0.898522 2:-0.888471 3:-0.824716 4:-0.929112 5:-0.898751 6:-0.938038 7:-0.941584 8:-0.951676 9:-0.915789 10:-0.980594 11:-0.788179 12:-0.999714 13:-0.810952 14:-0.980594 15:-0.915722 16:-0.978289 17:-0.951384 18:-0.0263158 19:0.206225 20:1.0 21:-0.749558 22:-0.962963 23:-0.852437
7.198916534075286 1:-0.897611 2:-0.902392 3:-0.819951 4:-0.949095 5:-0.897842 6:-0.922403 7:-0.917738 8:-0.957338 9:-0.895238 10:-0.979075 11:-0.943988 12:-0.988157 13:-0.949149 14:-0.979075 15:-0.895172 16:-0.973832 17:-0.957045 18:-0.0350877 19:0.164681 20:1.0 21:-0.631006 22:-0.962963 23:-0.890119
2.677685462076085 1:-0.895682 2:-0.892512 3:-0.82011 4:-0.911071 5:-0.895917 6:-0.629143 7:-0.749835 8:-0.795682 9:-0.930178 10:-0.893894 11:-0.873696 12:-0.940922 13:-0.865969 14:-0.893894 15:-0.930111 16:-0.805683 17:-0.795413 18:-0.0292398 19:0.0743862 20:1.0 21:-0.564955 22:-0.962963 23:-0.639877
8.0 1:-0.883452 2:-0.864063 3:-0.814074 4:-0.834373 5:-0.883713 6:-0.73493 7:-0.732452 8:-0.905584 9:-0.968646 10:-0.975976 11:-0.971045 12:-0.852226 13:-0.908925 14:-0.975976 15:-0.968577 16:-0.888203 17:-0.905299 18:0.590643 19:0.565262 20:1.0 21:0.0267856 22:-0.740741 23:-0.0966184
2.46271094702011 1:-0.89621 2:-0.85328 3:-0.836788 4:-0.68979 5:-0.896444 6:-0.759128 7:-0.754829 8:-0.939471 9:-0.599496 10:-0.494769 11:-0.252232 12:-0.616098 13:-0.375979 14:-0.494769 15:-0.599441 16:-0.719107 17:-0.93918 18:0.660819 19:0.622908 20:1.0 21:-0.32326 22:-0.925926 23:-0.380764
2.787961826227532 1:0.77583 2:0.775752 3:0.751608 4:-0.834611 5:0.775357 6:-0.758503 7:-0.496144 8:-0.482761 9:-0.635817 10:-0.722252 11:-0.716955 12:-0.863105 13:-0.66091 14:-0.722252 15:-0.63576 16:-0.585933 17:-0.482539 18:0.526316 19:0.184005 20:1.0 21:-0.737359 22:-0.62963 23:-0.72278
0.6271468638570239 1:0.775645 2:0.768196 3:0.795965 4:-0.962772 5:0.775171 6:-0.628614 7:-0.621006 8:-0.92187 9:-0.856411 10:-0.9674 11:-0.95144 12:-0.969354 13:-0.98628 14:-0.9674 15:-0.856346 16:-0.938884 17:-0.921582 18:0.368421 19:0.0398096 20:1.0 21:-0.988574 22:-1.0 23:-0.990942
7.87857028432221 1:0.754775 2:0.807494 3:0.764911 4:-0.834735 5:0.754264 6:-0.936018 7:-0.941731 8:-0.921037 9:-0.965954 10:-0.965099 11:-0.857472 12:-0.824723 13:-0.695211 14:-0.965099 15:-0.965885 16:-0.947157 17:-0.920749 18:0.719298 19:0.520432 20:1.0 21:-0.410841 22:-0.962963 23:-0.884058
8.0 1:0.761652 2:0.761215 3:0.769597 4:-0.904314 5:0.761153 6:-0.75273 7:-0.878076 8:-0.864587 9:-0.883565 10:-0.940784 11:-0.971494 12:-0.975639 13:-0.970967 14:-0.940784 15:-0.883499 16:-0.821456 17:-0.864308 18:0.672515 19:0.394642 20:1.0 21:-0.464813 22:-0.925926 23:-0.517651
4.7336160835283 1:0.755077 2:0.749636 3:0.757049 4:-0.908645 5:0.754566 6:-0.880214 7:-0.994124 8:-0.793484 9:-0.949128 10:-0.929738 11:-0.920654 12:-0.870591 13:-0.942607 14:-0.929738 15:-0.94906 16:-0.837202 17:-0.793215 18:0.719298 19:0.527119 20:1.0 21:-0.48848 22:-0.925926 23:-0.93311
7.238552021075943 1:0.765214 2:0.758875 3:0.776348 4:-0.912607 5:0.764721 6:-0.729158 7:-0.979434 8:-0.887567 9:-0.829373 10:-0.914014 11:-0.851905 12:-0.989199 13:-0.819123 14:-0.914014 15:-0.82931 16:-0.878168 17:-0.887284 18:0.587719 19:0.658447 20:1.0 21:-0.131693 22:-0.518519 23:-0.0378422
3.7446180546229666 1:0.765092 2:0.767991 3:0.775713 4:-0.925862 5:0.764599 6:-0.766681 7:-0.760069 8:-0.839943 9:-0.889947 10:-0.831326 11:-0.95258 12:-0.99167 13:-0.986035 14:-0.831326 15:-0.889881 16:-0.769414 17:-0.839667 18:0.745614 19:1.0 20:1.0 21:-0.0768193 22:-0.925926 23:-0.114332
2.2982101060060023 1:0.768955 2:0.763802 3:0.771225 4:-0.917999 5:0.76847 6:-0.62669 7:-0.621006 8:-0.919039 9:-0.824152 10:-0.98044 11:-0.920586 12:-0.961798 13:-0.892871 14:-0.98044 15:-0.824088 16:-0.90032 17:-0.918751 18:-0.0526316 19:-0.263348 20:1.0 21:-0.68724 22:-0.444444 23:-0.761844
1.835047069501261 1:0.765585 2:0.763802 3:0.771225 4:-0.920463 5:0.765093 6:-0.737336 7:-0.859469 8:-0.640953 9:-0.680841 10:-0.809695 11:-0.974177 12:-0.901064 13:-0.974397 14:-0.809695 15:-0.680783 16:-0.604481 17:-0.640708 18:-0.184211 19:-0.287718 20:1.0 21:-0.70125 22:-0.888889 23:-0.707729
1.4743759750386762 1:0.766887 2:0.762119 3:0.780836 4:-0.944471 5:0.766398 6:-0.769086 7:-0.851634 8:-0.97399 9:-0.956554 10:-0.97415 11:-0.989134 12:-0.836163 13:-0.988852 14:-0.97415 15:-0.956486 16:-0.982252 17:-0.973694 18:-0.201754 19:-0.280831 20:1.0 21:-0.681399 22:-0.518519 23:-0.951691
0.7203021175674081 1:0.770675 2:0.767909 3:0.785402 4:-0.920189 5:0.770192 6:-0.613701 7:-0.606317 8:-0.907716 9:-0.971988 10:-0.876812 11:-0.959757 12:-0.963669 13:-0.897219 14:-0.876812 15:-0.971919 16:-0.820522 17:-0.90743 18:0.754386 19:0.38495 20:1.0 21:-0.77808 22:-1.0 23:-0.87747
8.0 1:0.768432 2:0.765732 3:0.772536 4:-0.92275 5:0.767945 6:-0.727233 7:-0.720406 8:-0.975655 9:-0.960848 10:-0.974534 11:-0.989872 12:-0.961303 13:-0.960799 14:-0.974534 15:-0.96078 16:-0.981452 17:-0.975359 18:0.552632 19:0.727747 20:1.0 21:-0.375725 22:-0.703704 23:-0.889291
0.29973689937872067 1:0.766777 2:0.763885 3:0.782265 4:-0.942215 5:0.766287 6:-0.859528 7:-0.987759 8:-0.878575 9:-0.918493 10:-0.94577 11:-0.949025 12:-0.968118 13:-0.90947 14:-0.94577 15:-0.918426 16:-0.903789 17:-0.878293 18:0.491228 19:0.3151 20:1.0 21:-0.620307 22:-0.777778 23:-0.879227
5.196700666689402 1:0.773149 2:0.773781 3:0.791835 4:-0.915689 5:0.772671 6:-0.994708 7:-0.876607 8:-0.920371 9:-0.911414 10:-0.940554 11:-0.800661 12:-0.863493 13:-0.757688 14:-0.940554 15:-0.911348 16:-0.923939 17:-0.920083 18:0.578947 19:0.207752 20:1.0 21:-0.739442 22:-0.259259 23:-0.859464
4.126002244005556 1:0.804179 2:0.797269 3:0.814431 4:-0.923781 5:0.803759 6:-0.867225 7:-0.879545 8:-0.778831 9:-0.883681 10:-0.899593 11:-0.95533 12:-0.930195 13:-0.929315 14:-0.899593 15:-0.883615 16:-0.788363 17:-0.778564 18:0.461988 19:0.197426 20:1.0 21:-0.67384 22:-0.592593 23:-0.834015
2.2430240413906724 1:0.799851 2:0.796982 3:0.81316 4:-0.91102 5:0.799423 6:-0.98653 7:-0.757131 8:-0.748358 9:-0.766943 10:-0.884329 11:-0.968141 12:-0.974792 13:-0.997182 14:-0.884329 15:-0.766882 16:-0.764477 17:-0.748096 18:0.429825 19:0.173453 20:1.0 21:-0.43261 22:-0.703704 23:-0.518519
0.8119979097374573 1:0.804234 2:0.797269 3:0.803947 4:-0.892645 5:0.803814 6:-0.876365 7:-0.993145 8:-0.646116 9:-0.746172 10:-0.812764 11:-0.922465 12:-0.956536 13:-0.901262 14:-0.812764 15:-0.746111 16:-0.644647 17:-0.645869 18:0.640351 19:0.279565 20:1.0 21:-0.708978 22:-0.814815 23:-0.695652
8.0 1:0.805032 2:0.795011 3:0.812366 4:-0.961712 5:0.804614 6:-0.884543 7:-0.752234 8:-0.991641 9:-0.853394 10:-0.885403 11:-0.912068 12:-0.967977 13:-0.963678 14:-0.885403 15:-0.853329 16:-0.938484 17:-0.991342 18:0.461988 19:0.287266 20:1.0 21:-0.504001 22:-0.888889 23:-0.561873
8.0 1:0.806473 2:0.795586 3:0.812843 4:-0.942734 5:0.806057 6:-0.757541 7:-0.989228 8:-0.910213 9:-0.962588 10:-0.979366 11:-0.995372 12:-0.970802 13:-0.915595 14:-0.979366 15:-0.96252 16:-0.928476 17:-0.909927 18:0.497076 19:0.507189 20:1.0 21:-0.560849 22:-0.62963 23:-0.608696
2.5025294343536917 1:0.805745 2:0.795668 3:0.812843 4:-0.915364 5:0.805328 6:-0.999519 7:-0.996572 8:-0.867418 9:-0.839701 10:-0.966327 11:-0.872227 12:-0.939199 13:-0.903712 14:-0.966327 15:-0.839637 16:-0.892447 17:-0.867138 18:0.649123 19:0.373259 20:1.0 21:-0.308346 22:-0.925926 23:-0.51728
1.2366094547199207 1:0.805771 2:0.804743 3:0.821936 4:-0.911783 5:0.805355 6:-0.516525 7:-0.633248 8:-0.753187 9:-0.772397 10:-0.869985 11:-0.912739 12:-0.859715 13:-0.854159 14:-0.869985 15:-0.772336 16:-0.769414 17:-0.752924 18:0.666667 19:0.255808 20:1.0 21:-0.584498 22:-0.925926 23:-0.683794
3.556808408319797 1:0.78372 2:0.787743 3:0.792034 4:-0.912312 5:0.783262 6:-0.84269 7:-0.709144 8:-0.401167 9:-0.532773 10:-0.64455 11:-0.87377 12:-0.859009 13:-0.893544 14:-0.64455 15:-0.532719 16:-0.476644 17:-0.400957 18:0.701754 19:0.489347 20:1.0 21:-0.388871 22:-0.888889 23:-0.408696
1.2938914106451005 1:0.705828 2:0.713828 3:0.691685 4:-0.619086 5:0.705232 6:-0.729158 7:-0.888848 8:-0.703731 9:-0.584643 10:-0.547135 11:-0.339875 12:-0.34556 13:-0.285375 14:-0.547135 15:-0.584588 16:-0.691484 17:-0.703476 18:0.438596 19:0.145592 20:1.0 21:0.11032 22:-0.407407 23:-0.0766046
0.5617713788650617 1:0.730568 2:0.737316 3:0.729688 4:-0.804757 5:0.730014 6:-0.477558 7:-0.208716 8:-0.621138 9:-0.567469 10:-0.635346 11:-0.636938 12:-0.636271 13:-0.633347 14:-0.635346 15:-0.567415 16:-0.615156 17:-0.620895 18:0.464912 19:0.117053 20:1.0 21:-0.0834505 22:-0.62963 23:-0.784334
3.358481510916587 1:0.791118 2:0.784909 3:0.802954 4:-0.932386 5:0.790673 6:-0.879733 7:-0.864855 8:-0.691242 9:-0.994616 10:-0.96019 11:-0.973574 12:-0.993471 13:-0.925273 14:-0.96019 15:-0.994546 16:-0.822657 17:-0.690989 18:0.54386 19:0.251788 20:1.0 21:-0.620171 22:-1.0 23:-0.675207
0.042144589233896745 1:0.815669 2:0.819444 3:0.804821 4:-0.818323 5:0.815271 6:-0.626209 7:-0.36002 8:-0.74153 9:-0.663319 10:-0.956432 11:-0.836746 12:-0.874404 13:-0.71034 14:-0.956432 15:-0.663261 16:-0.791966 17:-0.74127 18:0.640351 19:0.175367 20:1.0 21:-0.355649 22:-0.62963 23:-0.55314
3.762926308659121 1:0.786255 2:0.776738 3:0.793146 4:-0.922134 5:0.785801 6:-0.934574 7:-0.939772 8:-0.730207 9:-0.786438 10:-0.748638 11:-0.768265 12:-0.835316 13:-0.801912 14:-0.748638 15:-0.786376 16:-0.702026 17:-0.729948 18:1.0 19:0.612912 20:1.0 21:-0.545228 22:-0.925926 23:-0.628019
3.9335352571333972 1:0.782734 2:0.782035 3:0.799698 4:-0.926138 5:0.782274 6:-0.92784 7:-0.94271 8:-0.856095 9:-0.928356 10:-0.833627 11:-0.995104 12:-0.97112 13:-0.939851 14:-0.833627 15:-0.928289 16:-0.868294 17:-0.855817 18:0.918129 19:0.690343 20:1.0 21:-0.860368 22:-0.111111 23:-0.903382
-8.0 1:-0.924948 2:-0.919146 3:-0.934695 4:-0.677914 5:-0.925119 6:-0.751576 7:-0.737055 8:-0.93654 9:-0.98944 10:-0.865705 11:-0.97362 12:-0.845457 13:-0.937731 14:-0.865705 15:-0.989371 16:-0.989004 17:-0.93625 18:0.578947 19:0.363291 20:1.0 21:-0.492958 22:-0.851852 23:-0.647428
-8.0 1:-0.928398 2:-0.920407 3:-0.858629 4:-0.852158 5:-0.928562 6:-0.979314 7:-0.852418 8:-0.771054 9:-0.678973 10:-0.604403 11:-0.491304 12:-0.715663 13:-0.534027 14:-0.604403 15:-0.678914 16:-0.674751 17:-0.770789 18:0.450292 19:0.326232 20:1.0 21:-0.64097 22:-0.444444 23:-0.68254
-1.5262166525347238 1:-0.932213 2:-0.930508 3:-0.858629 4:-0.931007 5:-0.932369 6:-0.799875 7:-0.793365 8:-0.833765 9:-0.935365 10:-0.955105 11:-0.886292 12:-0.895209 13:-0.854019 14:-0.955105 15:-0.935298 16:-0.866546 17:-0.83349 18:0.157895 19:0.431121 20:1.0 21:-0.691499 22:-0.37037 23:-0.744828
-0.3234085180362734 1:-0.888713 2:-0.825414 3:-0.846438 4:-0.205568 5:-0.888962 6:0.418964 7:0.310124 8:-0.0181755 9:-0.155721 10:-0.355841 11:-0.502975 12:-0.0665549 13:-0.322929 14:-0.355841 15:-0.155681 16:-0.267422 17:-0.0180229 18:-0.0760234 19:0.568198 20:1.0 21:-0.548583 22:-0.814815 23:-0.882436
-0.22493873835714154 1:-0.827801 2:-0.783349 3:-0.827881 4:0.535463 5:-0.828173 6:1.0 7:0.784062 8:0.6451 9:0.840537 10:0.67481 11:0.711415 12:0.756909 13:0.912373 14:0.67481 15:0.840542 16:0.769521 17:0.645153 18:-0.0994152 19:0.515324 20:1.0 21:-0.455839 22:-0.851852 23:-0.54418
-8.0 1:-0.857113 2:-0.86509 3:-0.782543 4:-0.973627 5:-0.857429 6:-0.630009 7:-0.62179 8:-0.880973 9:-0.827169 10:-0.968344 11:-0.925389 12:-0.951063 13:-0.935098 14:-0.968344 15:-0.827105 16:-0.906298 17:-0.880691 18:0.649123 19:0.411889 20:1.0 21:-0.306136 22:-0.962963 23:-0.565217
-8.0 1:-0.852911 2:-0.863887 3:-0.782543 4:-0.957916 5:-0.853235 6:-0.766441 7:-0.891296 8:-0.983914 9:-0.950648 10:-0.871297 11:-0.935409 12:-0.857198 13:-0.944004 14:-0.871297 15:-0.95058 16:-0.88021 17:-0.983617 18:0.672515 19:0.295627 20:1.0 21:-0.253636 22:-0.888889 23:-0.439242
-8.0 1:-0.852284 2:-0.863887 3:-0.782484 4:-0.949894 5:-0.852609 6:-0.498773 7:-0.614396 8:-0.915525 9:-0.877461 10:-0.922942 11:-0.99949 12:-0.902176 13:-0.965233 14:-0.922942 15:-0.877395 16:-0.967961 17:-0.915238 18:0.438596 19:0.373967 20:1.0 21:-0.285883 22:-0.407407 23:-0.373839
-0.5045777032485556 1:-0.649318 2:-0.626215 3:-0.634263 4:-0.213096 5:-0.650004 6:-0.472988 7:-0.213074 8:-0.289933 9:0.244817 10:-0.0714965 11:0.269087 12:-0.0896973 13:0.316883 14:-0.0714965 15:0.244844 16:-0.150648 17:-0.28974 18:-0.567251 19:0.297676 20:1.0 21:-0.400038 22:-0.814815 23:-0.452036
-0.3054946790356563 1:-0.648955 2:-0.648196 3:-0.600361 4:-0.817857 5:-0.649643 6:-0.660365 7:-0.780634 8:-0.689227 9:-0.56104 10:-0.762016 11:-0.640265 12:-0.706542 13:-0.738179 14:-0.762016 15:-0.560986 16:-0.727567 17:-0.688974 18:-0.833333 19:-0.0308983 20:-1.0 21:-0.5578 22:-0.814815 23:-0.52864
-8.0 1:-0.831288 2:-0.830408 3:-0.780061 4:-0.88719 5:-0.831656 6:-0.370761 7:-0.74342 8:-0.922236 9:-0.975376 10:-0.972026 11:-0.974741 12:-0.897826 13:-0.833297 14:-0.972026 15:-0.975307 16:-0.939711 17:-0.921948 18:0.54386 19:0.351868 20:1.0 21:-0.186735 22:-0.740741 23:-0.25864
-8.0 1:-0.831113 2:-0.830408 3:-0.769478 4:-0.915808 5:-0.83148 6:-0.896859 7:-0.976203 8:-0.981117 9:-0.928368 10:-0.927015 11:-0.8677 12:-0.940269 13:-0.940212 14:-0.927015 15:-0.928301 16:-0.911342 17:-0.98082 18:0.614035 19:0.161653 20:1.0 21:-0.656632 22:-0.814815 23:-0.812098
-8.0 1:-0.835269 2:-0.830408 3:-0.769478 4:-0.905012 5:-0.835629 6:-0.385481 7:-0.499082 8:-0.931511 9:-0.86624 10:-0.999678 11:-0.816437 12:-0.94833 13:-0.851936 14:-0.999678 15:-0.866175 16:-0.984908 17:-0.931222 18:0.403509 19:0.149152 20:1.0 21:-0.702936 22:-0.481481 23:-0.728405
-8.0 1:-0.838407 2:-0.838349 3:-0.777007 4:-0.886076 5:-0.83876 6:-0.885505 7:-0.857706 8:-0.974822 9:-0.998596 10:-0.914766 11:-0.891128 12:-0.976116 13:-0.790262 14:-0.914766 15:-0.998526 16:-0.995463 17:-0.974527 18:0.149123 19:0.3726 20:1.0 21:-0.533176 22:-0.444444 23:-0.538552
-8.0 1:-0.837555 2:-0.838349 3:-0.777007 4:-0.881367 5:-0.83791 6:-0.756867 7:-0.993439 8:-0.955606 9:-0.940007 10:-0.915195 11:-0.963231 12:-0.947257 13:-0.896993 14:-0.915195 15:-0.939939 16:-0.965786 17:-0.955313 18:0.0614035 19:0.462613 20:1.0 21:-0.700199 22:-0.888889 23:-0.757978
-7.281859126501115 1:-0.833995 2:-0.839565 3:-0.768426 4:-0.92508 5:-0.834358 6:-0.637562 7:-0.628694 8:-0.799412 9:-0.801941 10:-0.792552 11:-0.992555 12:-0.948659 13:-0.992497 14:-0.792552 15:-0.801879 16:-0.807605 17:-0.799143 18:0.0292398 19:0.463675 20:1.0 21:-0.696045 22:-0.851852 23:-0.731232
-2.0918562716887674 1:-0.817464 2:-0.786757 3:-0.758677 4:-0.609783 5:-0.817858 6:-0.1995 7:-0.183743 8:-0.272932 9:-0.336176 10:-0.220718 11:-0.452442 12:-0.426898 13:-0.586171 14:-0.220718 15:-0.33613 16:-0.275936 17:-0.272741 18:-0.0292398 19:0.379129 20:1.0 21:-0.748331 22:-0.62963 23:-0.797792
-0.11239201769387341 1:-0.765455 2:-0.702881 3:-0.749107 4:0.572192 5:-0.765945 6:0.0496945 7:0.0652956 8:0.433122 9:0.683591 10:0.672962 11:0.778487 12:0.537836 13:0.769589 14:0.672962 15:0.683602 16:0.663048 17:0.433207 18:-0.0760234 19:0.404656 20:1.0 21:-0.643883 22:-0.814815 23:-0.720497
-0.781313515350358 1:-0.643073 2:-0.61544 3:-0.61258 4:-0.515411 5:-0.64377 6:-0.676962 7:-0.675848 8:-0.500945 9:-0.242937 10:-0.439403 11:-0.177171 12:-0.0219719 13:-0.0425792 14:-0.439403 15:-0.242894 16:-0.355734 17:-0.50072 18:-0.517544 19:0.477748 20:1.0 21:-0.0887304 22:-0.518519 23:-0.156315
-0.42814602839628857 1:-0.616401 2:-0.618191 3:-0.558117 4:-0.941222 5:-0.617138 6:-0.95959 7:-0.956274 8:-0.742197 9:-0.902595 10:-0.973529 11:-0.918467 12:-0.830206 13:-0.935392 14:-0.973529 15:-0.902529 16:-0.771749 17:-0.741935 18:-0.789474 19:-0.220803 20:1.0 21:-0.313143 22:-1.0 23:-0.387164
-2.2017871932333137 1:-0.621354 2:-0.618191 3:-0.56461 4:-0.902814 5:-0.622083 6:-0.544042 7:-0.534974 8:-0.659487 9:-0.664816 10:-0.750341 11:-0.671634 12:-0.629717 13:-0.620588 14:-0.784091 15:-0.745137 16:-0.726886 17:-0.774502 18:-0.789474 19:-0.381222 20:1.0 21:-0.714516 22:-1.0 23:-0.815217
-4.041903988769044 1:-0.631575 2:-0.639298 3:-0.56461 4:-0.974006 5:-0.632289 6:-0.75018 7:-0.873522 8:-0.992373 9:-0.992341 10:-0.953202 11:-0.97967 12:-0.988242 13:-0.987505 14:-0.981338 15:-0.970028 16:-0.965532 17:-1.0 18:-0.789474 19:-0.381222 20:1.0 21:-0.714516 22:-1.0 23:-0.815217
-8.0 1:-0.825489 2:-0.828724 3:-0.75546 4:-0.940728 5:-0.825867 6:-0.853418 7:-0.895067 8:-0.747542 9:-0.74413 10:-0.849881 11:-0.870678 12:-0.84938 13:-0.811743 14:-0.849881 15:-0.744069 16:-0.784426 17:-0.74728 18:0.421053 19:0.450951 20:1.0 21:0.0963776 22:-0.814815 23:-0.116632
-8.0 1:-0.822622 2:-0.828724 3:-0.751132 4:-0.958582 5:-0.823006 6:-0.701063 7:-0.915143 8:-0.873912 9:-0.928983 10:-0.923771 11:-0.969932 12:-0.968291 13:-0.929891 14:-0.923771 15:-0.928916 16:-0.874699 17:-0.873632 18:0.403509 19:0.44628 20:1.0 21:-0.3741 22:-0.518519 23:-0.495687
-8.0 1:-0.824853 2:-0.832379 3:-0.751847 4:-0.94917 5:-0.825233 6:-0.996296 7:-0.869262 8:-0.868417 9:-0.969493 10:-0.965958 11:-0.980676 12:-0.974576 13:-0.990169 14:-0.965958 15:-0.969424 16:-0.895542 17:-0.868137 18:0.578947 19:0.321473 20:1.0 21:-0.437029 22:-0.851852 23:-0.611801
-8.0 1:-0.825795 2:-0.832091 3:-0.752283 4:-0.910112 5:-0.826173 6:-0.880791 7:-0.860644 8:-0.685597 9:-0.7735 10:-0.852612 11:-0.969697 12:-0.985593 13:-0.975848 14:-0.852612 15:-0.773438 16:-0.746209 17:-0.685344 18:0.342105 19:0.465719 20:1.0 21:-0.208314 22:-0.407407 23:-0.456419
-0.22092593096438629 1:-0.702311 2:-0.665439 3:-0.699666 4:-0.16881 5:-0.702912 6:0.279935 7:0.0460032 8:0.303571 9:0.418914 10:0.366963 11:0.209956 12:-0.412198 13:0.0939388 14:0.366963 15:0.418934 16:0.449249 17:0.303675 18:-0.146199 19:0.569067 20:1.0 21:-0.575732 22:-0.444444 23:-0.631707
-8.0 1:-0.837176 2:-0.835499 3:-0.785295 4:-0.912595 5:-0.837532 6:-0.589936 7:-0.708459 8:-0.822725 9:-0.790511 10:-0.856148 11:-0.890122 12:-0.922487 13:-0.906493 14:-0.856148 15:-0.790449 16:-0.87638 17:-0.822452 18:0.526316 19:0.46772 20:1.0 21:-0.273425 22:-0.814815 23:-0.195748
-8.0 1:-0.834544 2:-0.847244 3:-0.766003 4:-0.951127 5:-0.834905 6:-0.802665 7:-0.668209 8:-0.949978 9:-0.973728 10:-0.89203 11:-0.908453 12:-0.986995 13:-0.915901 14:-0.89203 15:-0.97366 16:-0.913237 17:-0.949686 18:0.637427 19:0.619122 20:1.0 21:-0.604348 22:-0.888889 23:-0.962356
-8.0 1:-0.832221 2:-0.840509 3:-0.759217 4:-0.956436 5:-0.832587 6:-0.859047 7:-0.858196 8:-0.935174 9:-0.979101 10:-0.953394 11:-0.947838 12:-0.897134 13:-0.963433 14:-0.953394 15:-0.979032 16:-0.940926 17:-0.934884 18:0.614035 19:0.680279 20:1.0 21:-0.627814 22:-0.925926 23:-0.905289
-8.0 1:-0.83534 2:-0.840509 3:-0.760583 4:-0.944891 5:-0.835699 6:-0.865493 7:-0.731669 8:-0.728242 9:-0.796836 10:-0.822889 11:-0.816289 12:-0.784405 13:-0.844004 14:-0.822889 15:-0.796773 16:-0.742979 17:-0.727983 18:0.450292 19:0.645709 20:1.0 21:-0.712594 22:-0.444444 23:-0.781389
-2.192496772647592 1:-0.683622 2:-0.675988 3:-0.626876 4:-0.779878 5:-0.684255 6:-0.746139 7:-0.86745 8:-0.956056 9:-0.721444 10:-0.86378 11:-0.610069 12:-0.873299 13:-0.542443 14:-0.86378 15:-0.721384 16:-0.997425 17:-0.955763 18:-0.394737 19:0.362512 20:1.0 21:-0.495499 22:-0.925926 23:-0.873093
-8.0 1:-0.744931 2:-0.730352 3:-0.681797 4:-0.867108 5:-0.74546 6:-0.545389 7:-0.919696 8:-0.925433 9:-0.907747 10:-0.959346 11:-0.93215 12:-0.966829 13:-0.871665 14:-0.959346 15:-0.907681 16:-0.885641 17:-0.925145 18:0.640351 19:0.833008 20:1.0 21:-0.29226 22:-0.962963 23:-0.326987
-5.425603380133727 1:-0.745095 2:-0.730352 3:-0.681797 4:-0.87251 5:-0.745624 6:-0.812383 7:-0.422353 8:-0.533583 9:-0.577924 10:-0.689131 11:-0.725037 12:-0.961967 13:-0.787254 14:-0.689131 15:-0.577869 16:-0.603173 17:-0.533353 18:0.657895 19:0.81964 20:1.0 21:-0.253684 22:-0.962963 23:-0.908548
-8.0 1:-0.745088 2:-0.742959 3:-0.676177 4:-0.92952 5:-0.745616 6:-0.787848 7:-0.652834 8:-0.905634 9:-0.973067 10:-0.932454 11:-0.974459 12:-0.978552 13:-0.993967 14:-0.932454 15:-0.972998 16:-0.862129 17:-0.905349 18:0.695906 19:0.635399 20:1.0 21:0.204149 22:-0.888889 23:0.0799814
-8.0 1:-0.747398 2:-0.744174 3:-0.677607 4:-0.928366 5:-0.747922 6:-0.617982 7:-0.742049 8:-0.95106 9:-0.862573 10:-0.970154 11:-0.823406 12:-0.934729 13:-0.819889 14:-0.970154 15:-0.862508 16:-0.957606 17:-0.950768 18:0.497076 19:0.390917 20:1.0 21:-0.593142 22:-0.333333 23:-0.937671
-0.13634253871528254 1:-0.636728 2:-0.602258 3:-0.646827 4:0.361687 5:-0.637432 6:0.804686 7:0.710564 8:0.615859 9:1.0 10:0.701757 11:0.600719 12:0.319533 13:0.674232 14:0.701757 15:1.0 16:0.728194 17:0.615917 18:-0.146199 19:0.742013 20:1.0 21:-0.438254 22:-0.481481 23:-0.636232
-8.0 1:-0.682129 2:-0.682554 3:-0.624164 4:-0.893739 5:-0.682764 6:-0.899745 7:-0.973999 8:-0.887151 9:-0.967276 10:-0.916453 11:-0.945329 12:-0.932038 13:-0.972602 14:-0.916453 15:-0.967208 16:-0.899452 17:-0.886868 18:0.473684 19:0.4867 20:1.0 21:-0.70087 22:-0.814815 23:-0.776398
-8.0 1:-0.680174 2:-0.675089 3:-0.624494 4:-0.869578 5:-0.680813 6:-0.729398 7:-0.719672 8:-0.780895 9:-0.813592 10:-0.884253 11:-0.735266 12:-0.996472 13:-0.803516 14:-0.884253 15:-0.813529 16:-0.986269 17:-0.780629 18:0.614035 19:0.43828 20:1.0 21:-0.804524 22:-0.62963 23:-0.832494
-8.0 1:-0.682802 2:-0.675089 3:-0.624601 4:-0.844156 5:-0.683437 6:-0.974792 7:-0.976986 8:-0.755268 9:-0.997412 10:-0.89875 11:-0.943874 12:-0.862007 13:-0.90095 14:-0.89875 15:-0.997343 16:-0.803642 17:-0.755005 18:0.491228 19:0.462261 20:1.0 21:-0.804506 22:-0.222222 23:-0.921325
-0.6637719707194556 1:-0.6574 2:-0.568381 3:-0.626102 4:-0.0171939 5:-0.658073 6:0.522105 7:1.0 8:0.596626 9:0.6349 10:0.115886 11:-0.375457 12:0.14148 13:0.0357496 14:0.115886 15:0.634913 16:0.263486 17:0.596687 18:0.0994152 19:0.724821 20:1.0 21:-0.498656 22:-0.555556 23:-0.545151
-0.0763181020878397 1:-0.588907 2:-0.535736 3:-0.589163 4:0.678401 5:-0.589681 6:0.546399 7:0.57351 8:0.458649 9:0.542172 10:0.556623 11:0.54902 12:0.745271 13:0.564665 14:0.556623 15:0.542188 16:0.518892 17:0.45873 18:0.111111 19:0.764653 20:1.0 21:-0.643957 22:-0.777778 23:-0.849034
-8.0 1:-0.634121 2:-0.593081 3:-0.57275 4:-0.874747 5:-0.634831 6:-0.703469 7:-0.824997 8:-0.958637 9:-0.973264 10:-0.985127 11:-0.950601 12:-0.969287 13:-0.98081 14:-0.985127 15:-0.973195 16:-0.936509 17:-0.958343 18:0.578947 19:0.903761 20:1.0 21:-0.458442 22:-0.888889 23:-0.513458
-8.0 1:-0.634464 2:-0.648168 3:-0.57275 4:-0.955191 5:-0.635174 6:-0.783326 7:-0.838414 8:-0.98478 9:-0.86964 10:-0.923364 11:-0.890498 12:-0.978178 13:-0.916649 14:-0.923364 15:-0.869575 16:-0.957899 17:-0.984483 18:0.535088 19:0.690773 20:1.0 21:-0.0457567 22:-0.888889 23:-0.00780379
-8.0 1:-0.630882 2:-0.639897 3:-0.564344 4:-0.961909 5:-0.631597 6:-0.643527 7:-0.635108 8:-0.756467 9:-0.745998 10:-0.794362 11:-0.922431 12:-0.903232 13:-0.926565 14:-0.794362 15:-0.745937 16:-0.808152 17:-0.756204 18:0.415205 19:0.585045 20:1.0 21:-0.0273286 22:-0.333333 23:-0.544513
-0.029195151502408912 1:-0.585336 2:-0.521979 3:-0.564729 4:0.412732 5:-0.586115 6:0.388849 7:0.412168 8:0.170356 9:0.540083 10:0.394914 11:0.416136 12:0.520901 13:0.438597 14:0.394914 15:0.540099 16:0.319451 17:0.170481 18:-0.0292398 19:0.819986 20:1.0 21:-0.62633 22:-0.851852 23:-0.678706
-0.04090564477803433 1:-0.516386 2:-0.478534 3:-0.513081 4:0.156432 5:-0.517256 6:0.517294 7:0.797723 8:0.519745 9:0.5682 10:0.534279 11:0.582683 12:0.289342 13:0.637506 14:0.534279 15:0.568215 16:0.528526 17:0.519817 18:-0.111111 19:0.646085 20:1.0 21:-0.650363 22:-0.962963 23:-0.698068
-8.0 1:-0.862968 2:-0.859152 3:-0.818164 4:-0.857938 5:-0.863272 6:-0.889065 7:-0.884147 8:-0.904102 9:-0.942444 10:-0.983455 11:-0.92443 12:-0.982666 13:-0.911657 14:-0.983455 15:-0.942376 16:-0.922297 17:-0.903817 18:0.736842 19:0.572308 20:1.0 21:-0.0145334 22:-0.62963 23:0.00586611
-8.0 1:-0.862041 2:-0.859152 3:-0.818164 4:-0.853983 5:-0.862347 6:-0.727378 7:-0.850655 8:-0.839193 9:-0.889587 10:-0.873836 11:-0.801117 12:-0.994319 13:-0.885484 14:-0.873836 15:-0.889521 16:-0.838803 17:-0.838918 18:0.637427 19:0.177419 20:1.0 21:-0.352127 22:-1.0 23:-0.488635
-8.0 1:-0.864228 2:-0.868515 3:-0.807323 4:-0.911607 5:-0.864529 6:-0.783855 7:-0.779312 8:-0.908881 9:-0.919978 10:-0.930436 11:-0.892349 12:-0.960767 13:-0.868296 14:-0.930436 15:-0.919911 16:-0.960435 17:-0.908595 18:0.660819 19:0.157387 20:1.0 21:-0.434105 22:-0.777778 23:-0.549206
-8.0 1:-0.862774 2:-0.866461 3:-0.79672 4:-0.927698 5:-0.863077 6:-0.896811 7:-0.852075 8:-0.806423 9:-0.765458 10:-0.855389 11:-0.848739 12:-0.892805 13:-0.908808 14:-0.855389 15:-0.765397 16:-0.874125 17:-0.806152 18:0.412281 19:0.461043 20:1.0 21:-0.218858 22:-0.185185 23:-0.151839
-0.35601601799545807 1:-0.789297 2:-0.723766 3:-0.773886 4:0.910386 5:-0.789742 6:0.682542 7:0.842086 8:1.0 9:0.824674 10:0.884061 11:0.766924 12:1.0 13:0.840433 14:0.884061 15:0.82468 16:0.995143 17:1.0 18:-0.157895 19:0.679223 20:1.0 21:-0.631991 22:-0.814815 23:-0.675262
-8.0 1:-0.954828 2:-0.949985 3:-0.886486 4:-0.922818 5:-0.954933 6:-0.959109 7:-0.780634 8:-0.90227 9:-0.876115 10:-0.988602 11:-0.981508 12:-0.929136 13:-0.999779 14:-0.988602 15:-0.876049 16:-0.928195 17:-0.901985 18:0.763158 19:0.391458 20:1.0 21:-0.747852 22:-0.962963 23:-0.804463
-8.0 1:-0.961228 2:-0.951233 3:-0.887868 4:-0.910764 5:-0.961318 6:-0.863761 7:-0.862798 8:-0.895876 9:-0.894264 10:-0.944588 11:-0.809247 12:-0.809126 13:-0.729592 14:-0.944588 15:-0.894198 16:-0.982066 17:-0.895592 18:0.695906 19:0.481153 20:1.0 21:-0.549885 22:-0.888889 23:-0.59025
-8.0 1:-0.965539 2:-0.962936 3:-0.887868 4:-0.931535 5:-0.96562 6:-0.879059 7:-0.994614 8:-0.968461 9:-0.917066 10:-0.924124 11:-0.989101 12:-0.969513 13:-0.961607 14:-0.924124 15:-0.916999 16:-0.976301 17:-0.968166 18:0.710526 19:0.588951 20:1.0 21:-0.774015 22:-0.962963 23:-0.806063
-8.0 1:-0.966837 2:-0.962936 3:-0.887916 4:-0.929327 5:-0.966915 6:-0.868043 7:-0.990892 8:-0.702299 9:-0.908966 10:-0.943162 11:-0.979691 12:-0.942356 13:-0.983039 14:-0.943162 15:-0.908899 16:-0.79709 17:-0.702044 18:0.517544 19:0.570194 20:1.0 21:-0.712617 22:-0.333333 23:-0.751394
-0.2332738522525324 1:-0.856057 2:-0.820963 3:-0.824716 4:-0.108021 5:-0.856373 6:0.0275653 7:0.0421839 8:0.062053 9:0.505341 10:0.18011 11:0.415593 12:0.142119 13:0.49972 14:0.18011 15:0.505358 16:0.134488 17:0.0621935 18:-0.289474 19:0.517465 20:1.0 21:-0.623894 22:-1.0 23:-0.782609
-0.5862381923455148 1:-0.805933 2:-0.78261 3:-0.778056 4:-0.308902 5:-0.806348 6:-0.716457 7:-0.459028 8:0.033262 9:0.0328454 10:0.0107003 11:0.141569 12:-0.0321978 13:0.13834 14:0.0107003 15:0.032879 16:0.0793907 17:0.0334069 18:-0.596491 19:0.375244 20:1.0 21:-0.398353 22:-0.518519 23:-0.381673
-8.0 1:-0.923036 2:-0.923868 3:-0.860694 4:-0.915287 5:-0.923212 6:-0.951412 7:-0.789938 8:-0.823524 9:-0.894971 10:-0.937739 11:-0.883375 12:-0.883747 13:-0.909427 14:-0.937739 15:-0.894905 16:-0.902508 17:-0.823251 18:0.666667 19:0.616568 20:1.0 21:-0.924216 22:-0.666667 23:-0.937888
-8.0 1:-0.922604 2:-0.924607 3:-0.860694 4:-0.92242 5:-0.922781 6:-0.979795 7:-0.890317 8:-0.851482 9:-0.843159 10:-0.925175 11:-0.954948 12:-0.84105 13:-0.956095 14:-0.925175 15:-0.843095 16:-0.887416 17:-0.851205 18:0.590643 19:0.544474 20:1.0 21:-0.703783 22:-1.0 23:-0.736524
-8.0 1:-0.920195 2:-0.925568 3:-0.852673 4:-0.9418 5:-0.920377 6:-0.885986 7:-0.754486 8:-0.993373 9:-0.926163 10:-0.945325 11:-0.922592 12:-0.949725 13:-0.940659 14:-0.945325 15:-0.926096 16:-0.885961 17:-0.993074 18:0.590643 19:0.549552 20:1.0 21:-0.688417 22:-0.814815 23:-0.907246
-0.3178151155387063 1:-0.724998 2:-0.72085 3:-0.665793 4:-0.861103 5:-0.725562 6:-0.767162 7:-0.891492 8:-0.724562 9:-0.667264 10:-0.667692 11:-0.692648 12:-0.793159 13:-0.787438 14:-0.667692 15:-0.667206 16:-0.707711 17:-0.724304 18:-0.736842 19:0.0250078 20:-1.0 21:-0.622178 22:-0.62963 23:-0.911834
-0.016719779839754742 1:-0.733082 2:-0.733251 3:-0.675304 4:-0.879791 5:-0.733632 6:-0.509068 7:-0.371037 8:-0.445711 9:-0.616949 10:-0.810087 11:-0.741041 12:-0.907275 13:-0.858747 14:-0.744535 15:-0.764097 16:-0.828595 17:-0.786139 18:-1.0 19:0.0600144 20:-1.0 21:-0.671434 22:-1.0 23:-0.787332
-0.48625836355669755 1:-0.738437 2:-0.754539 3:-0.675304 4:-0.901847 5:-0.738978 6:-0.509549 7:-0.630065 8:-0.978486 9:-0.980482 10:-1.0 11:-1.0 12:-0.961289 13:-0.972988 14:-0.94205 15:-1.0 16:-1.0 17:-1.0 18:-1.0 19:0.158342 20:-1.0 21:-1.0 22:-1.0 23:-1.0
-8.0 1:-0.883199 2:-0.855497 3:-0.824414 4:-0.80199 5:-0.883461 6:-0.967672 7:-0.84189 8:-0.985746 9:-0.831509 10:-0.933857 11:-0.97849 12:-0.591338 13:-0.968529 14:-0.933857 15:-0.831445 16:-0.988337 17:-0.985448 18:0.625731 19:0.539556 20:1.0 21:-0.522963 22:-0.814815 23:-0.563946
-8.0 1:-0.886901 2:-0.88071 3:-0.824414 4:-0.913048 5:-0.887154 6:-0.706211 7:-0.569005 8:-0.637973 9:-0.595505 10:-0.724062 11:-0.705519 12:-0.789359 13:-0.674937 14:-0.724062 15:-0.595449 16:-0.655415 17:-0.637727 18:0.657895 19:0.634524 20:1.0 21:-0.402893 22:-0.962963 23:-0.807183
-8.0 1:-0.881152 2:-0.88071 3:-0.808975 4:-0.941158 5:-0.881418 6:-0.660846 7:-0.908189 8:-0.902287 9:-0.792519 10:-0.787282 11:-0.877278 12:-0.98601 13:-0.885288 14:-0.787282 15:-0.792456 16:-0.858152 17:-0.902002 18:0.614035 19:0.693342 20:1.0 21:-0.398827 22:-0.888889 23:-0.507585
-8.0 1:-0.879155 2:-0.858495 3:-0.808975 4:-0.922814 5:-0.879425 6:-0.9962 7:-0.86652 8:-0.69339 9:-0.993049 10:-0.917251 11:-0.86772 12:-0.94654 13:-0.837119 14:-0.917251 15:-0.99298 16:-0.752907 17:-0.693136 18:0.520468 19:0.773781 20:1.0 21:-0.908526 22:-0.518519 23:-0.920089
-0.5322267998531313 1:-0.794708 2:-0.726188 3:-0.805973 4:0.92438 5:-0.795143 6:0.192091 7:0.209206 8:0.783993 9:0.995463 10:1.0 11:1.0 12:0.667669 13:1.0 14:1.0 15:0.995463 16:0.958687 17:0.784025 18:-0.157895 19:0.620741 20:1.0 21:-0.866147 22:-0.777778 23:-0.899398
-8.0 1:-0.90231 2:-0.879807 3:-0.836788 4:-0.846111 5:-0.902531 6:-0.696252 7:-0.816379 8:-0.990292 9:-0.733698 10:-0.877549 11:-0.696337 12:-0.843875 13:-0.697294 14:-0.877549 15:-0.733637 16:-0.953042 17:-0.989994 18:0.660819 19:0.41763 20:1.0 21:-0.595084 22:-0.777778 23:-0.658203
-8.0 1:-0.896013 2:-0.879807 3:-0.827758 4:-0.836465 5:-0.896247 6:-0.597729 7:-0.588787 8:-0.890098 9:-0.601307 10:-0.622774 11:-0.559845 12:-0.86855 13:-0.563336 14:-0.622774 15:-0.601251 16:-0.911689 17:-0.889815 18:0.625731 19:0.370607 20:1.0 21:-0.784619 22:-0.740741 23:-0.857499
-8.0 1:-0.898947 2:-0.890114 3:-0.829894 4:-0.885749 5:-0.899175 6:-0.960071 7:-0.834007 8:-0.897142 9:-0.970607 10:-0.959492 11:-0.990523 12:-0.777544 13:-0.991994 14:-0.959492 15:-0.970538 16:-0.956778 17:-0.896857 18:0.684211 19:0.399538 20:1.0 21:-0.771147 22:-0.962963 23:-0.79086
-8.0 1:-0.903478 2:-0.912124 3:-0.829894 4:-0.948849 5:-0.903696 6:-0.681772 7:-0.671588 8:-0.99239 9:-0.904684 10:-0.946 11:-0.945048 12:-0.998058 13:-0.981306 14:-0.946 15:-0.904618 16:-0.912476 17:-0.992092 18:0.508772 19:0.575832 20:1.0 21:-0.307474 22:-0.592593 23:-0.426646
-0.6329463549253536 1:-0.892788 2:-0.894097 3:-0.822111 4:-0.903297 5:-0.89303 6:-0.981238 7:-0.890562 8:-0.965081 9:-0.855541 10:-0.934003 11:-0.857331 12:-0.969559 13:-0.882243 14:-0.934003 15:-0.855476 16:-0.934334 17:-0.964787 18:0.0526316 19:0.917838 20:1.0 21:-0.825028 22:-0.888889 23:-0.855072
-0.06906996742851536 1:-0.834692 2:-0.76524 3:-0.821118 4:0.719689 5:-0.83505 6:0.249146 7:0.65729 8:0.915975 9:0.772838 10:0.713216 11:0.855178 12:0.841823 13:0.995094 14:0.713216 15:0.772846 16:0.852281 17:0.915988 18:-0.114035 19:0.78588 20:1.0 21:-0.508362 22:-0.407407 23:-0.642512
-1.0288299821875233 1:-0.711526 2:-0.701402 3:-0.678794 4:-0.686941 5:-0.712113 6:-0.982681 7:-0.890807 8:-0.935108 9:-0.525648 10:-0.783539 11:-0.491505 12:-0.965039 13:-0.54338 14:-0.783539 15:-0.525595 16:-0.919989 17:-0.934818 18:-0.719298 19:0.222432 20:1.0 21:-0.794837 22:-1.0 23:-0.867206
-0.04969414545879204 1:-0.711467 2:-0.701402 3:-0.678794 4:-0.510281 5:-0.712053 6:-0.77967 7:-0.384013 8:-0.617541 9:-0.428498 10:-0.49098 11:-0.284292 12:-0.539912 13:-0.491273 14:-0.742809 15:-0.795381 16:-0.76469 17:-0.790552 18:-0.719298 19:0.161034 20:1.0 21:-1.0 22:-1.0 23:-1.0
-8.0 1:0.756942 2:0.807494 3:0.75967 4:-0.833585 5:0.756434 6:-0.774859 7:-0.769372 8:-0.838278 9:-0.968274 10:-0.951216 11:-0.816088 12:-0.898804 13:-0.815571 14:-0.951216 15:-0.968206 16:-0.897918 17:-0.838002 18:0.730994 19:0.587695 20:1.0 21:-0.434964 22:-1.0 23:-0.640832
-8.0 1:0.750506 2:0.753085 3:0.75967 4:-0.888493 5:0.749986 6:-0.86963 7:-0.869262 8:-0.867585 9:-0.813244 10:-0.869602 11:-0.854856 12:-0.831078 13:-0.814346 14:-0.869602 15:-0.813181 16:-0.821456 17:-0.867305 18:0.695906 19:0.597674 20:1.0 21:-0.474098 22:-0.962963 23:-0.530485
-3.801631484753738 1:0.745666 2:0.751401 3:0.726789 4:-0.86168 5:0.745138 6:-0.584837 7:-0.704248 8:-0.576178 9:-0.776923 10:-0.951216 11:-0.809515 12:-0.980724 13:-0.844849 14:-0.951216 15:-0.776861 16:-0.758338 17:-0.575942 18:0.535088 19:0.675006 20:1.0 21:-0.432226 22:-0.222222 23:-0.867208
-0.8051528873099378 1:0.750475 2:0.757109 3:0.726789 4:-0.805478 5:0.749956 6:-0.436667 7:-0.423675 8:-0.362868 9:-0.906889 10:-0.596993 11:-0.962574 12:-0.819532 13:-0.937523 14:-0.596993 15:-0.906822 16:-0.468638 17:-0.362664 18:0.298246 19:0.634531 20:1.0 21:-0.390606 22:-0.111111 23:-0.84829
-0.29396763107807583 1:0.783151 2:0.843014 3:0.766818 4:-0.111144 5:0.782693 6:0.484582 7:3.67242E-4 8:0.32302 9:0.15094 10:0.298995 11:0.0219796 12:0.0722681 13:-0.0713002 14:0.298995 15:0.15097 16:0.368037 17:0.323122 18:0.00584795 19:0.614773 20:1.0 21:-0.65376 22:-0.814815 23:-0.780901
-0.3119408359342523 1:0.848168 2:0.89693 3:0.817012 4:0.423641 5:0.847837 6:0.13773 7:0.286326 8:0.226273 9:0.493029 10:0.524737 11:0.68794 12:0.586564 13:0.825978 14:0.524737 15:0.493046 16:0.471987 17:0.226389 18:0.00584795 19:0.491356 20:1.0 21:-0.801927 22:-0.777778 23:-0.907479
-0.6128373719745128 1:0.913149 2:0.942757 3:0.894726 4:-0.385406 5:0.912952 6:-0.576177 7:-0.57302 8:-0.609482 9:0.0322304 10:-0.242771 11:0.0217113 12:0.0498106 13:0.118029 14:-0.242771 15:0.0322641 16:-0.431141 17:-0.60924 18:-0.622807 19:0.253357 20:1.0 21:-0.331588 22:-0.888889 23:-0.354037
-0.3365707981921843 1:0.953153 2:0.946617 3:0.922643 4:-0.801537 5:0.953045 6:-0.263001 7:-0.0569225 8:-0.841941 9:-0.817305 10:-0.930582 11:-0.890471 12:-0.896756 13:-0.920556 14:-0.956815 15:-0.886864 16:-0.869895 17:-0.679334 18:-0.684211 19:-0.0222707 20:1.0 21:-0.773656 22:-1.0 23:-0.803861
-8.0 1:0.780873 2:0.805605 3:0.792034 4:-0.883442 5:0.78041 6:-0.841728 7:-0.968662 8:-0.974156 9:-0.997749 10:-0.939173 11:-0.90241 12:-0.969036 13:-0.976173 14:-0.939173 15:-0.997679 16:-0.904189 17:-0.973861 18:0.640351 19:0.631333 20:1.0 21:-0.625894 22:-0.814815 23:-0.634561
-8.0 1:0.783294 2:0.805605 3:0.780319 4:-0.885863 5:0.782835 6:-0.991822 7:-0.864855 8:-0.75352 9:-0.76938 10:-0.95344 11:-0.969885 12:-0.931148 13:-0.973172 14:-0.95344 15:-0.769319 16:-0.771282 17:-0.753257 18:0.602339 19:0.608053 20:1.0 21:-0.527852 22:-1.0 23:-0.637681
-8.0 1:0.780733 2:0.773699 3:0.780319 4:-0.923868 5:0.780269 6:-0.872035 7:-0.998041 8:-0.955506 9:-0.906657 10:-0.935645 11:-0.999665 12:-0.808197 13:-0.99853 14:-0.935645 15:-0.90659 16:-0.822924 17:-0.955213 18:0.625731 19:0.497267 20:1.0 21:-0.515899 22:-0.777778 23:-0.617696
-8.0 1:0.77853 2:0.772713 3:0.800294 4:-0.924212 5:0.778062 6:-0.885505 7:-0.884931 8:-0.989476 9:-0.920582 10:-0.924906 11:-0.805625 12:-0.909891 13:-0.85661 14:-0.924906 15:-0.920515 16:-0.869895 17:-0.989178 18:0.508772 19:0.477198 20:1.0 21:-0.657612 22:-0.37037 23:-0.905578
-1.5156499563757944 1:0.778991 2:0.772713 3:0.790326 4:-0.912901 5:0.778523 6:-0.881657 7:-0.877096 8:-0.873579 9:-0.665059 10:-0.958503 11:-0.742107 12:-0.925781 13:-0.738516 14:-0.958503 15:-0.665002 16:-0.995863 17:-0.873299 18:0.324561 19:0.490808 20:1.0 21:-0.681892 22:-0.148148 23:-0.944022
-0.7245644496655835 1:0.799057 2:0.860179 3:0.790326 4:-0.349878 5:0.798628 6:0.283494 7:0.307382 8:-0.0656331 9:-0.0800972 10:-0.0412672 11:-0.328808 12:-0.167066 13:-0.340563 14:-0.0412672 15:-0.0800596 16:-0.00346279 17:-0.0654735 18:-0.0643275 19:0.461268 20:1.0 21:-0.934958 22:-0.777778 23:-0.97641
-0.43752895989026686 1:0.864152 2:0.904034 3:0.821301 4:0.833787 5:0.863854 6:0.792466 7:0.822989 8:0.556312 9:0.912749 10:0.711437 11:0.858236 12:0.862798 13:0.952585 14:0.711437 15:0.912752 16:0.742873 17:0.556379 18:-0.140351 19:0.399014 20:1.0 21:-0.636644 22:-0.851852 23:-0.719815
-0.47041077455807584 1:0.952298 2:0.986162 3:0.912437 4:-0.354095 5:0.952189 6:-0.400106 7:-0.392337 8:-0.468441 9:-0.251026 10:-0.331902 11:-0.064879 12:0.0378404 13:0.161763 14:-0.331902 15:-0.250982 16:-0.495326 17:-0.468221 18:-0.482456 19:0.412484 20:1.0 21:-0.191111 22:-0.481481 23:-0.309179
-8.0 1:0.786834 2:0.822277 3:0.79529 4:-0.868498 5:0.786381 6:-0.816712 7:-0.9432 8:-0.858426 9:-0.960732 10:-0.978523 11:-0.89805 12:-0.834115 13:-0.789906 14:-0.978523 15:-0.960663 16:-0.836268 17:-0.858148 18:0.637427 19:0.53931 20:1.0 21:-0.412587 22:-0.814815 23:-0.485852
-8.0 1:0.79157 2:0.822277 3:0.79529 4:-0.885982 5:0.791127 6:-0.959109 7:-0.828131 8:-0.611646 9:-0.711476 10:-0.845286 11:-0.987055 12:-0.97292 13:-0.998591 14:-0.845286 15:-0.711416 16:-0.645047 17:-0.611405 18:0.570175 19:0.308371 20:1.0 21:-0.45259 22:-0.925926 23:-0.396968
-8.0 1:0.794637 2:0.786798 3:0.804027 4:-0.946694 5:0.794199 6:-0.64016 7:-0.630799 8:-0.882738 9:-0.9605 10:-0.969088 11:-0.910995 12:-0.932561 13:-0.970783 14:-0.969088 15:-0.960431 16:-0.942887 17:-0.882456 18:0.464912 19:0.206264 20:1.0 21:-0.768288 22:-0.555556 23:-0.951691
-8.0 1:0.795689 2:0.786387 3:0.804066 4:-0.942652 5:0.795253 6:-0.732525 7:-0.856041 8:-0.879741 9:-0.822063 10:-0.847818 11:-0.774302 12:-0.931678 13:-0.777962 14:-0.847818 15:-0.821999 16:-0.834533 17:-0.879459 18:0.309942 19:0.308762 20:1.0 21:-0.288417 22:-0.444444 23:-0.372814
-1.2707589548787661 1:0.79368 2:0.786798 3:0.804066 4:-0.931277 5:0.79324 6:-0.760427 7:-0.883952 8:-0.797481 9:-0.677128 10:-0.846974 11:-0.985244 12:-0.994177 13:-0.946037 14:-0.846974 15:-0.677069 16:-0.839871 17:-0.797211 18:0.0438596 19:0.402809 20:1.0 21:-0.577391 22:-0.740741 23:-0.81652
-2.0219489119483605 1:0.792766 2:0.787168 3:0.80494 4:-0.941382 5:0.792324 6:-0.746476 7:-0.996572 8:-0.955839 9:-0.999605 10:-0.974841 11:-0.942989 12:-0.990117 13:-0.955041 14:-0.974841 15:-0.999536 16:-0.931144 17:-0.955546 18:0.0350877 19:0.386898 20:1.0 21:-0.521708 22:-1.0 23:-0.465335
-0.979534992895448 1:0.798666 2:0.798871 3:0.805814 4:-0.885526 5:0.798236 6:-0.486698 7:-0.347778 8:-0.776166 9:-0.686991 10:-0.730459 11:-0.774771 12:-0.797498 13:-0.884785 14:-0.730459 15:-0.686933 16:-0.748464 17:-0.7759 18:0.0292398 19:0.289814 20:1.0 21:-0.710164 22:-0.851852 23:-0.944885
-0.46966435211456853 1:0.847522 2:0.9336 3:0.815821 4:1.0 5:0.847191 6:0.664983 7:0.56641 8:0.57413 9:0.777793 10:0.858787 11:0.86984 12:0.711493 13:0.873999 14:0.858787 15:0.777801 16:0.773697 17:0.574194 18:0.0760234 19:0.423829 20:1.0 21:-0.227012 22:-0.925926 23:-0.312911
-0.28306679334268803 1:0.916438 2:0.939513 3:0.848185 4:0.329661 5:0.916249 6:0.279646 7:0.426858 8:0.585619 9:0.645855 10:0.533635 11:0.552454 12:0.111604 13:0.681791 14:0.533635 15:0.645867 16:0.659339 17:0.585682 18:-0.0964912 19:0.573315 20:1.0 21:-0.401654 22:-0.481481 23:-0.498275
-0.24422903163082216 1:0.960853 2:1.0 3:0.935192 4:-0.0636949 5:0.960763 6:0.0405542 7:0.0552087 8:0.031447 9:0.278933 10:0.158625 11:0.366932 12:0.107402 13:0.474208 14:0.158625 15:0.278958 16:0.149994 17:0.0315921 18:-0.473684 19:0.306937 20:1.0 21:-0.418129 22:-0.518519 23:-0.382992
-0.26325592591245406 1:0.990919 2:1.0 3:0.957152 4:-0.607116 5:0.990898 6:-0.347188 7:-0.333578 8:-0.384349 9:-0.481947 10:-0.627292 11:-0.600048 12:-0.878853 13:-0.630284 14:-0.627292 15:-0.481895 16:-0.463701 17:-0.384142 18:-0.596491 19:0.140403 20:1.0 21:-0.431402 22:-0.740741 23:-0.428815
-0.41476070507905904 1:0.9882 2:0.983164 3:0.999404 4:-0.914306 5:0.988173 6:-0.7662 7:-0.633737 8:-0.763011 9:-0.701961 10:-0.640408 11:-0.719437 12:-0.890294 13:-0.823044 14:-0.822198 15:-0.873056 16:-0.854016 17:-0.875463 18:-0.719298 19:-0.202624 20:1.0 21:-0.884282 22:-1.0 23:-0.9251
-2.0715660266388927 1:0.983276 2:0.973555 3:0.999404 4:-0.973472 5:0.983236 6:-0.991341 7:-0.988248 8:-0.861257 9:-0.877879 10:-0.846821 11:-1.0 12:-0.93708 13:-0.940708 14:-0.998159 15:-1.0 16:-1.0 17:-1.0 18:-0.719298 19:-0.167994 20:1.0 21:-1.0 22:-1.0 23:-1.0