svm_type c_svc
kernel_type rbf
gamma 0.16666666666666666
nr_class 2
total_sv 141
rho 0.47837627500959357
label 0 1
nr_sv 73 68
SV
50.0 1:0.6754385964912282 2:0.5952824483141022 3:1.0 4:-0.7780235836766559 5:-0.6296296296296297 6:-0.8953301127536232
50.0 1:0.6228070175438596 2:0.596751915950414 3:1.0 4:-0.7776335867344809 5:-0.8148148148148149 6:-0.9942791762318841
50.0 1:0.5789473684210527 2:0.502269792313998 3:1.0 4:-0.37654122816638524 5:-0.7037037037037037 6:-0.463998159710145
44.70112488264632 1:0.7543859649122806 2:0.7821684479077955 3:1.0 4:0.05864007669114657 5:-1.0 6:-0.03381642507246374
28.75432638964802 1:0.605263157894737 2:0.43261705369195913 3:1.0 4:-0.5044672099795564 5:-0.962962962962963 6:-0.6739130434782609
50.0 1:0.6403508771929824 2:0.5056994842199294 3:1.0 4:-0.6516260067620521 5:-0.8148148148148149 6:-0.8969404186956522
50.0 1:0.415204678245614 2:0.25700549602761935 3:1.0 4:-0.4306114906860872 5:-0.7407407407407407 6:-0.4790716530434783
50.0 1:0.6842105263157894 2:0.5648210776496296 3:1.0 4:-0.6825334890962654 5:-0.5185185185185186 6:-0.9130434782608696
8.189815702319132 1:0.12280701754385959 2:0.28626606256144216 3:1.0 4:0.41130533141267045 5:-1.0 6:-0.08651734739130446
48.77414350428602 1:0.7982456140350878 2:0.5698400631095499 3:1.0 4:-0.3169604364087867 5:-0.962962962962963 6:-0.2351046698550725
50.0 1:0.7777777778947368 2:0.620144445994639 3:1.0 4:-0.3954823194926448 5:-0.962962962962963 6:-0.4927536231884059
50.0 1:0.5526315789473684 2:0.550627797408481 3:1.0 4:-0.7802362952832474 5:-0.8518518518518519 6:-0.772361294057971
50.0 1:0.5672514621052631 2:0.5588093202829327 3:1.0 4:-0.7637607336856748 5:-0.962962962962963 6:-0.7987117552173914
50.0 1:0.5438596491228069 2:0.43328410366388503 3:1.0 4:-0.5896332873965475 5:-0.9259259259259259 6:-0.6249682176811594
50.0 1:0.5438596491228069 2:0.4431672706267311 3:1.0 4:-0.4647936485417199 5:-0.8518518518518519 6:-0.5111571198550725
50.0 1:0.5175438596491229 2:0.35217332190995254 3:1.0 4:-0.2796470095090686 5:-0.962962962962963 6:-0.3413561076811594
50.0 1:0.5321637428070174 2:0.5888788605182422 3:1.0 4:-0.3107369561527229 5:-0.962962962962963 6:-0.515771525942029
50.0 1:0.4970760235087719 2:0.7381353125357142 3:1.0 4:-0.8635564244125917 5:-0.8518518518518519 6:-0.8918371697101449
50.0 1:0.48245614035087714 2:0.6071480928164088 3:1.0 4:-0.6454241540541898 5:-0.962962962962963 6:-0.657647956231884
50.0 1:0.3771929824561404 2:0.47157670889099323 3:1.0 4:-0.41769035710424696 5:-0.7037037037037037 6:-0.4135594742028986
50.0 1:0.7309941519298246 2:0.5005269558886509 3:1.0 4:-0.7198061380929859 5:0.07407407407407418 6:-0.9300788202898551
50.0 1:0.5906432747368422 2:0.47213834362940843 3:1.0 4:-0.7053442874262068 5:-0.962962962962963 6:-0.7435897436231884
50.0 1:0.520467836140351 2:0.47070655310410525 3:1.0 4:-0.6417326121326881 5:-0.8888888888888888 6:-0.6739130434782609
50.0 1:0.6140350877192982 2:0.6490154536616226 3:1.0 4:-0.6043972236135629 5:-0.5925925925925926 6:-0.5721187026086957
50.0 1:0.4736842105263157 2:0.49186635314934213 3:1.0 4:0.040014126607836875 5:-0.2222222222222222 6:-0.1873706004347826
39.5642796038842 1:0.3216374270175437 2:0.422312075697747 3:1.0 4:0.22688677539885815 5:-0.40740740740740744 6:-0.6066252588405798
13.883135263040675 1:0.29824561403508776 2:0.47017474619025035 3:1.0 4:0.3836612649752944 5:-0.07407407407407407 6:0.2629399585507246
50.0 1:0.6608187133333334 2:0.9853632089415605 3:1.0 4:-0.6714508313733392 5:-0.6666666666666667 6:-0.8792270531884058
24.78421570593848 1:0.7894736842105263 2:0.9295234280404603 3:1.0 4:-0.8020538714195382 5:-0.7407407407407407 6:-0.8822463768115942
50.0 1:0.8070175438596492 2:0.8188004593270568 3:1.0 4:-0.4610851807680003 5:-0.8518518518518519 6:-0.4495296211594203
50.0 1:0.5906432747368422 2:0.3550335994790679 3:1.0 4:-0.3733769516205515 5:-0.5185185185185186 6:-0.5458937198550725
50.0 1:0.520467836140351 2:0.3495608175140532 3:1.0 4:-0.6642024830391131 5:-0.7777777777777778 6:-0.749482401594203
50.0 1:0.5555555554385965 2:0.4077937328778849 3:1.0 4:-0.8989304352844328 5:-0.7407407407407407 6:-0.9094202898550725
50.0 1:0.605263157894737 2:0.39926547578204974 3:1.0 4:-0.44688625237317847 5:-0.5555555555555556 6:-0.770750988115942
50.0 1:0.4970760235087719 2:0.3946967662406642 3:1.0 4:-0.427055220370568 5:-0.6666666666666667 6:-0.5164690382608695
50.0 1:0.415204678245614 2:0.39774257215486997 3:1.0 4:-0.2854179483601381 5:-0.5555555555555556 6:-0.4565217391304348
50.0 1:0.46198830421052617 2:0.5292762801834581 3:1.0 4:-0.3211230244301846 5:-0.8888888888888888 6:-0.5297906602898551
11.583497801817408 1:-0.4035087719298246 2:-0.28168280295979276 3:1.0 4:-0.8779314251155662 5:-0.8518518518518519 6:-0.9194847020289856
50.0 1:0.6403508771929824 2:0.39429177415157435 3:1.0 4:-0.5097797844536862 5:-0.8148148148148149 6:-0.5723117462318841
6.485504952158699 1:0.6257309940350877 2:0.49490379247736205 3:1.0 4:-0.31240405031653706 5:-0.7037037037037037 6:-0.9989343563768116
50.0 1:0.45029239754385975 2:0.42543253493302924 3:1.0 4:-0.13415467389669966 5:-0.7037037037037037 6:-0.22900682014492757
15.2854278453462 1:0.13157894736842102 2:-0.01573106963736004 3:1.0 4:-0.2892280982258869 5:0.14814814814814814 6:-0.25724637681159424
50.0 1:-0.26315789473684215 2:-0.1547904355001284 3:1.0 4:-0.7357025617646551 5:-0.7037037037037037 6:-0.8974489363768116
50.0 1:0.3450292396491228 2:0.3483891952533682 3:1.0 4:-0.22835475045784026 5:-0.5925925925925926 6:-0.41221339797101453
50.0 1:0.5438596491228069 2:0.5697330517517185 3:1.0 4:-0.8554553316183695 5:-0.4444444444444444 6:-0.9150049036231884
50.0 1:0.3099415203508773 2:0.18852952318024707 3:1.0 4:-0.6929309442936878 5:-0.7407407407407407 6:-0.7198067633333334
50.0 1:0.1578947368421053 2:0.0052396694148320044 3:1.0 4:-0.4635958899065662 5:-0.2592592592592593 6:-0.536231884057971
50.0 1:0.46198830421052617 2:0.3799246048094509 3:1.0 4:-0.869030286564925 5:-0.6296296296296297 6:-0.9810606060869566
50.0 1:0.5438596491228069 2:0.5101497455227357 3:1.0 4:-0.37613073920145323 5:-0.8148148148148149 6:-0.4655248133333334
50.0 1:0.4736842105263157 2:0.6495799884949451 3:1.0 4:-0.4870499114692939 5:-0.40740740740740744 6:-0.6407004830434784
50.0 1:0.6959064326315789 2:0.6992773938453656 3:1.0 4:-0.6852858928940685 5:-0.9259259259259259 6:-0.7198067633333334
50.0 1:-0.07602339192982444 2:0.09850208469750998 3:1.0 4:-0.38521238861578344 5:-0.8518518518518519 6:-0.4517640169565218
50.0 1:-0.01754385964912286 2:0.21139997047357717 3:1.0 4:-0.7808406272445468 5:-0.9259259259259259 6:-0.9821627647826087
50.0 1:-0.01754385964912286 2:0.18437820215950884 3:1.0 4:-0.7159784917624006 5:-0.962962962962963 6:-0.7482067047826086
50.0 1:-0.02631578947368418 2:0.2062254788155693 3:1.0 4:-0.7495580636933485 5:-0.962962962962963 6:-0.8524374176811594
50.0 1:-0.03508771929824561 2:0.16468068116043422 3:1.0 4:-0.6310062367591907 5:-0.962962962962963 6:-0.8901185771014493
50.0 1:-0.0292397659649124 2:0.0743862409639433 3:1.0 4:-0.56495461209169 5:-0.962962962962963 6:-0.6398770311594203
43.99052477563254 1:-0.3099415203508773 2:-0.23131441964383936 3:1.0 4:-0.6937232025494784 5:-0.7037037037037037 6:-0.7625708884057971
50.0 1:0.5906432747368422 2:0.5652619175384785 3:1.0 4:0.0267855547367446 5:-0.7407407407407407 6:-0.09661835753623194
50.0 1:0.6023391814035086 2:0.7437924756733423 3:1.0 4:-0.6364886403681151 5:-0.962962962962963 6:-0.9028731247826087
50.0 1:0.6608187133333334 2:0.6229078089319076 3:1.0 4:-0.3232600472177951 5:-0.9259259259259259 6:-0.3807641633333334
50.0 1:0.7309941519298246 2:0.6164627018013342 3:1.0 4:-0.2083308441070315 5:-1.0 6:-0.2753623188405797
50.0 1:0.4970760235087719 2:0.37391759829138893 3:1.0 4:-0.3006783406712723 5:-0.7777777777777778 6:-0.4927536231884059
50.0 1:0.5877192982456141 2:0.6584466681723267 3:1.0 4:-0.131692815468069 5:-0.5185185185185186 6:-0.03784219
50.0 1:0.7456140350877194 2:1.0 3:1.0 4:-0.0768193194243385 5:-0.9259259259259259 6:-0.11433172304347838
50.0 1:0.5789473684210527 2:0.580871674356453 3:1.0 4:-0.23920310077002127 5:-0.8888888888888888 6:-0.9077733860869566
50.0 1:0.5526315789473684 2:0.7277472221635584 3:1.0 4:-0.37572500608053927 5:-0.7037037037037037 6:-0.8892914653623188
11.609083292451555 1:0.5789473684210527 2:0.20775194457411095 3:1.0 4:-0.7394418999343718 5:-0.2592592592592593 6:-0.8594642072463768
50.0 1:0.6228070175438596 2:0.3496188328137455 3:1.0 4:-0.5069461570211626 5:-0.37037037037037035 6:-0.8023715414492754
39.39498019719665 1:0.46198830421052617 2:0.28726571214246444 3:1.0 4:-0.5040012566447807 5:-0.8888888888888888 6:-0.5618729097101449
50.0 1:0.4970760235087719 2:0.5071885449188778 3:1.0 4:-0.5608490118681648 5:-0.6296296296296297 6:-0.6086956521739131
50.0 1:0.7017543859649122 2:0.4893468876577145 3:1.0 4:-0.3888707805407098 5:-0.8888888888888888 6:-0.408695652173913
47.69512832906422 1:0.9181286550877192 2:0.6903430283115208 3:1.0 4:-0.8603681941696679 5:-0.11111111111111116 6:-0.9033816424637682
-50.0 1:0.5789473684210527 2:0.3632907794505138 3:1.0 4:-0.492957851813547 5:-0.8518518518518519 6:-0.6474277481159421
-50.0 1:0.45029239754385975 2:0.32623219811032445 3:1.0 4:-0.640970239791967 5:-0.4444444444444444 6:-0.6825396826086957
-50.0 1:0.6491228070175439 2:0.41188865080511006 3:1.0 4:-0.30613622598693635 5:-0.962962962962963 6:-0.5652173913043479
-50.0 1:0.6725146199999998 2:0.29562736119815614 3:1.0 4:-0.2536364562712432 5:-0.8888888888888888 6:-0.4392419175362319
-50.0 1:0.4385964912280702 2:0.37396697093301423 3:1.0 4:-0.285882606575263 5:-0.40740740740740744 6:-0.37383872159420284
-50.0 1:0.5438596491228069 2:0.351868044036008 3:1.0 4:-0.18673520429725277 5:-0.7407407407407407 6:-0.2586399108695653
-50.0 1:0.6140350877192982 2:0.16165252910492311 3:1.0 4:-0.6566315267329973 5:-0.8148148148148149 6:-0.8120976731884058
-50.0 1:0.4035087719298245 2:0.1491515279506832 3:1.0 4:-0.7029358604412199 5:-0.4814814814814815 6:-0.7284050282608696
-50.0 1:0.14912280701754388 2:0.37259989648121894 3:1.0 4:-0.5331756757266828 5:-0.4444444444444444 6:-0.5385521098550725
-50.0 1:0.06140350877192979 2:0.4626125946017172 3:1.0 4:-0.7001985769278476 5:-0.8888888888888888 6:-0.757978153768116
-50.0 1:0.0292397659649124 2:0.46367487765574844 3:1.0 4:-0.6960451586069009 5:-0.8518518518518519 6:-0.7312322675362319
-50.0 1:-0.7894736842105263 2:-0.3812223838789104 3:1.0 4:-0.7145160008543305 5:-1.0 6:-0.8152173913043479
-50.0 1:-0.7894736842105263 2:-0.3812223838789104 3:1.0 4:-0.7145160008543305 5:-1.0 6:-0.8152173913043479
-50.0 1:0.42105263157894735 2:0.4509506482627774 3:1.0 4:0.0963775764293362 5:-0.8148148148148149 6:-0.11663216014492761
-50.0 1:0.4035087719298245 2:0.44628001325088706 3:1.0 4:-0.3740998405446152 5:-0.5185185185185186 6:-0.4956873789855073
-50.0 1:0.5789473684210527 2:0.32147320267444024 3:1.0 4:-0.4370294504154125 5:-0.8518518518518519 6:-0.6118012421739131
-50.0 1:0.3421052631578947 2:0.46571915375179707 3:1.0 4:-0.20831445150212247 5:-0.40740740740740744 6:-0.4564185143478261
-50.0 1:0.5263157894736843 2:0.4677196845160707 3:1.0 4:-0.27342499789968966 5:-0.8148148148148149 6:-0.19574752101449278
-50.0 1:0.6374269007017543 2:0.6191215433883215 3:1.0 4:-0.6043483209721794 5:-0.8888888888888888 6:-0.962356484057971
-50.0 1:0.6140350877192982 2:0.6802794001287429 3:1.0 4:-0.6278144963936927 5:-0.9259259259259259 6:-0.9052885837681159
-50.0 1:0.45029239754385975 2:0.6457088053849513 3:1.0 4:-0.7125940033941178 5:-0.4444444444444444 6:-0.7813887669565218
-50.0 1:0.6403508771929824 2:0.8330081971577896 3:1.0 4:-0.2922595309609366 5:-0.962962962962963 6:-0.32698683333333334
-50.0 1:0.6578947368421053 2:0.8196404911151791 3:1.0 4:-0.25368393428101077 5:-0.962962962962963 6:-0.9085483995652174
-50.0 1:0.6959064326315789 2:0.635399072521639 3:1.0 4:0.20414867349652877 5:-0.8888888888888888 6:0.07998139971014484
-50.0 1:0.4970760235087719 2:0.39091684230941603 3:1.0 4:-0.5931421927481952 5:-0.33333333333333337 6:-0.9376710246376811
-50.0 1:0.4736842105263157 2:0.486699962726878 3:1.0 4:-0.7008698618252613 5:-0.8148148148148149 6:-0.7763975155072464
-50.0 1:0.6140350877192982 2:0.43827973424674704 3:1.0 4:-0.8045243381190011 5:-0.6296296296296297 6:-0.8324942791304348
-50.0 1:0.49122807017543857 2:0.46226145127116225 3:1.0 4:-0.8045059347537542 5:-0.2222222222222222 6:-0.9213250517391305
-50.0 1:0.4970760235087719 2:0.8813028102516696 3:1.0 4:-0.259134707521527 5:-0.7777777777777778 6:-0.38047459782608706
-50.0 1:0.5789473684210527 2:0.9037614480886307 3:1.0 4:-0.45844201603789025 5:-0.8888888888888888 6:-0.5134575569565218
-50.0 1:0.5350877192982457 2:0.6907725653350962 3:1.0 4:-0.04575672925424523 5:-0.8888888888888888 6:-0.0078037904347826315
-50.0 1:0.415204678245614 2:0.5850451548361972 3:1.0 4:-0.0273285958730477 5:-0.33333333333333337 6:-0.5445134575362318
-50.0 1:0.736842105263158 2:0.5723077074968004 3:1.0 4:-0.014533383069981087 5:-0.6296296296296297 6:0.005866114492753649
-50.0 1:0.6374269007017543 2:0.1774186659018926 3:1.0 4:-0.3521269048315834 5:-1.0 6:-0.48863462999999996
-50.0 1:0.6608187133333334 2:0.15738687948134933 3:1.0 4:-0.43410506391099457 5:-0.7777777777777778 6:-0.5492063492753623
-50.0 1:0.4122807017543859 2:0.46104293029454535 3:1.0 4:-0.21885800981231796 5:-0.18518518518518523 6:-0.1518394649275363
-50.0 1:0.763157894736842 2:0.39145757465399234 3:1.0 4:-0.7478520206268064 5:-0.962962962962963 6:-0.8044628479710145
-50.0 1:0.6959064326315789 2:0.48115254084233383 3:1.0 4:-0.5498849858386234 5:-0.8888888888888888 6:-0.5902503294202899
-50.0 1:0.7105263157894737 2:0.5889509340414005 3:1.0 4:-0.7740146760096256 5:-0.962962962962963 6:-0.8060631520289855
-50.0 1:0.5175438596491229 2:0.5701944938397394 3:1.0 4:-0.712617023908418 5:-0.33333333333333337 6:-0.751393534057971
-50.0 1:0.6666666666666667 2:0.616568328779294 3:1.0 4:-0.9242161350695116 5:-0.6666666666666667 6:-0.9378881986956522
-50.0 1:0.5906432747368422 2:0.5444738442608021 3:1.0 4:-0.7037829149244426 5:-1.0 6:-0.7365242817391304
-50.0 1:0.5906432747368422 2:0.5495523258914277 3:1.0 4:-0.6884165973419833 5:-0.8148148148148149 6:-0.9072463768115941
-50.0 1:0.6257309940350877 2:0.5395560244036366 3:1.0 4:-0.5229634948366917 5:-0.8148148148148149 6:-0.5639460971014493
-50.0 1:0.6578947368421053 2:0.6345236914713308 3:1.0 4:-0.40289292636982976 5:-0.962962962962963 6:-0.8071833647826087
-50.0 1:0.6140350877192982 2:0.6933415951104818 3:1.0 4:-0.39882723894737415 5:-0.8888888888888888 6:-0.5075853885507247
-50.0 1:0.520467836140351 2:0.7737814444641413 3:1.0 4:-0.9085261477703732 5:-0.5185185185185186 6:-0.9200893624637682
-50.0 1:0.6608187133333334 2:0.41763013514027536 3:1.0 4:-0.595084135051029 5:-0.7777777777777778 6:-0.6582034797101449
-50.0 1:0.6257309940350877 2:0.3706071613972024 3:1.0 4:-0.7846193262853695 5:-0.7407407407407407 6:-0.8574994798550725
-50.0 1:0.6842105263157894 2:0.3995380605805474 3:1.0 4:-0.7711468016870131 5:-0.962962962962963 6:-0.7908602634782609
-50.0 1:0.5087719298245614 2:0.575832228753766 3:1.0 4:-0.30747365773495405 5:-0.5925925925925926 6:-0.426646325942029
-50.0 1:0.7309941519298246 2:0.5876949423376063 3:1.0 4:-0.43496430265189945 5:-1.0 6:-0.6408317579710145
-50.0 1:0.6959064326315789 2:0.5976741059262862 3:1.0 4:-0.4740979337738357 5:-0.962962962962963 6:-0.5304847576811594
-50.0 1:0.5350877192982457 2:0.675005924639936 3:1.0 4:-0.4322264846245979 5:-0.2222222222222222 6:-0.8672081028985508
-50.0 1:0.6403508771929824 2:0.6313327588576783 3:1.0 4:-0.6258937380051655 5:-0.8148148148148149 6:-0.6345607101449275
-50.0 1:0.6023391814035086 2:0.6080528245961825 3:1.0 4:-0.5278521107848668 5:-1.0 6:-0.6376811594202898
-50.0 1:0.6257309940350877 2:0.4972666970691051 3:1.0 4:-0.5158990164442121 5:-0.7777777777777778 6:-0.6176964149275362
-50.0 1:0.5087719298245614 2:0.4771975055889708 3:1.0 4:-0.6576121185018293 5:-0.37037037037037035 6:-0.9055775142028986
-25.32952631731867 1:0.32456140350877183 2:0.49080845240138893 3:1.0 4:-0.6818922484415069 5:-0.14814814814814814 6:-0.9440217391304347
-50.0 1:0.6374269007017543 2:0.5393097146794228 3:1.0 4:-0.41258698561887985 5:-0.8148148148148149 6:-0.485852311884058
-50.0 1:0.5701754385964912 2:0.30837056718257116 3:1.0 4:-0.4525898959838933 5:-0.9259259259259259 6:-0.3969681826086957
-50.0 1:0.4649122807017543 2:0.20626353787068563 3:1.0 4:-0.7682878402575078 5:-0.5555555555555556 6:-0.9516908213043478
-50.0 1:0.3099415203508773 2:0.3087620170077805 3:1.0 4:-0.2884168910079893 5:-0.4444444444444444 6:-0.3728135931884058
-50.0 1:0.04385964912280693 2:0.4028094132012219 3:1.0 4:-0.5773905004390969 5:-0.7407407407407407 6:-0.8165203113043478
-50.0 1:0.03508771929824572 2:0.38689830918322365 3:1.0 4:-0.5217081885573224 5:-1.0 6:-0.4653349001449276
-50.0 1:0.0292397659649124 2:0.28981381272091555 3:1.0 4:-0.7101643662124453 5:-0.8518518518518519 6:-0.9448847004347826
-50.0 1:0.07602339192982455 2:0.4238292890278026 3:1.0 4:-0.22701173481253145 5:-0.9259259259259259 6:-0.31291111202898547
-9.365661928111402 1:-0.7192982456140351 2:-0.20262423771888105 3:1.0 4:-0.8842823137963983 5:-1.0 6:-0.9251004749275362
